{"ip":0,"fr":60,"v":"5.1.20","assets":[],"layers":[{"ty":4,"nm":"pli3_Artboard 2","ip":0,"st":0,"ind":2,"hix":1,"ks":{"o":{"a":0,"k":100},"or":{"a":0,"k":[0,0,0]},"a":{"a":0,"k":[200,200,0]},"p":{"s":true,"x":{"a":1,"k":[{"t":0,"s":[430.5],"e":[430.5],"i":{"x":[1],"y":[1]},"o":{"x":[0],"y":[0]}},{"t":100,"s":[430.5],"e":[296.5],"i":{"x":[1],"y":[1]},"o":{"x":[0],"y":[0]}},{"t":150,"s":[296.5],"e":[430.5],"i":{"x":[1],"y":[1]},"o":{"x":[0],"y":[0]}},{"t":200}]},"y":{"a":1,"k":[{"t":0,"s":[259],"e":[141.5],"i":{"x":[1],"y":[1]},"o":{"x":[0],"y":[0]}},{"t":50,"s":[141.5],"e":[259],"i":{"x":[1],"y":[1]},"o":{"x":[0],"y":[0]}},{"t":100,"s":[259],"e":[242],"i":{"x":[1],"y":[1]},"o":{"x":[0],"y":[0]}},{"t":150,"s":[242],"e":[259],"i":{"x":[1],"y":[1]},"o":{"x":[0],"y":[0]}},{"t":200}]}},"rx":{"a":0,"k":0},"ry":{"a":0,"k":0},"rz":{"a":0,"k":0},"s":{"a":0,"k":[100,100,100]}},"shapes":[{"ty":"gr","nm":"pli3_Artboard 2 shape group","it":[{"ty":"sh","ks":{"a":0,"k":{"c":true,"v":[[290.037,215.171],[289.019,212.642],[285.995,211.766],[283.551,211.18099999999998],[283.37,212.011],[284.319,214.028],[280.07500000000005,216.13],[281.785,217.839],[286.218,217.126]],"i":[[0,0],[0,0],[1.3629999999999995,0.9770000000000039],[0.3830000000000382,-0.10599999999999454],[-1.649000000000001,-0.7870000000000061],[0.6870000000000118,-0.6459999999999866],[0.9409999999999741,-0.06700000000000728],[-0.9489999999999554,-0.18600000000000705],[-1.927000000000021,1.1339999999999861]],"o":[[0,0],[0,0],[-0.742999999999995,-0.532999999999987],[-0.38299999999998136,0.10599999999999454],[1.649000000000001,0.7870000000000061],[-0.6870000000000118,0.6459999999999866],[-0.9409999999999741,0.06700000000000728],[0.9499999999999886,0.18600000000000705],[0.7019999999999982,-0.4140000000000157]]}}},{"ty":"st","o":{"a":0,"k":0},"w":{"a":0,"k":0},"c":{"a":0,"k":[0,0,0,0]},"lc":3,"lj":1,"ml":1},{"ty":"fl","o":{"a":0,"k":100},"r":1,"c":{"a":0,"k":[1,1,1,1]}},{"ty":"tr","o":{"a":0,"k":100},"a":{"a":0,"k":[0,0]},"s":{"a":0,"k":[100,100]},"p":{"a":0,"k":[0,0]},"r":{"a":0,"k":0}}]},{"ty":"gr","nm":"pli3_Artboard 2 shape group","it":[{"ty":"sh","ks":{"a":0,"k":{"c":true,"v":[[85.073,156.878],[148.962,119.07999999999998],[185.293,187.577],[120.44900000000001,222.837]],"i":[[-7.138999999999996,28.07000000000002],[-28.115999999999985,-8.125],[8.657999999999987,-29.235000000000014],[27.236999999999995,8.800000000000011]],"o":[[7.2960000000000065,-28.687000000000012],[28.602000000000004,8.265],[-8.467000000000013,28.587999999999994],[-26.79100000000001,-8.656999999999982]]}}},{"ty":"sh","ks":{"a":0,"k":{"c":true,"v":[[179.634,185.843],[147.338,124.98999999999998],[90.416,158.51299999999998],[121.95599999999999,217.35399999999998]],"i":[[-7.47799999999998,25.457000000000022],[25.369,7.381],[6.550999999999988,-25.534999999999997],[-23.934999999999988,-7.689999999999998]],"o":[[7.628999999999991,-25.96799999999999],[-24.986000000000004,-7.2690000000000055],[-6.424999999999997,25.045000000000016],[24.289000000000016,7.805000000000007]]}}},{"ty":"st","o":{"a":0,"k":0},"w":{"a":0,"k":0},"c":{"a":0,"k":[0,0,0,0]},"lc":3,"lj":1,"ml":1},{"ty":"fl","o":{"a":0,"k":100},"r":1,"c":{"a":0,"k":[0.09019607843137255,0.2,0.44313725490196076,1]}},{"ty":"tr","o":{"a":0,"k":100},"a":{"a":0,"k":[0,0]},"s":{"a":0,"k":[100,100]},"p":{"a":0,"k":[0,0]},"r":{"a":0,"k":0}}]},{"ty":"gr","nm":"pli3_Artboard 2 shape group","it":[{"ty":"sh","ks":{"a":0,"k":{"c":true,"v":[[82.157,155.984],[149.85399999999998,115.833],[188.397,188.527],[119.627,225.826]],"i":[[-7.522999999999996,29.721000000000004],[-29.833,-8.588999999999999],[9.230999999999995,-31.028999999999996],[28.844999999999985,9.347999999999985]],"o":[[7.697999999999993,-30.412000000000006],[30.381,8.747],[-9.01400000000001,30.300999999999988],[-28.345,-9.186999999999983]]}}},{"ty":"sh","ks":{"a":0,"k":{"c":true,"v":[[179.634,185.843],[147.338,124.98999999999998],[90.416,158.51299999999998],[121.95599999999999,217.35399999999998]],"i":[[-7.47799999999998,25.457000000000022],[25.369,7.381],[6.550999999999988,-25.534999999999997],[-23.934999999999988,-7.689999999999998]],"o":[[7.628999999999991,-25.96799999999999],[-24.986000000000004,-7.2690000000000055],[-6.424999999999997,25.045000000000016],[24.289000000000016,7.805000000000007]]}}},{"ty":"st","o":{"a":0,"k":0},"w":{"a":0,"k":0},"c":{"a":0,"k":[0,0,0,0]},"lc":3,"lj":1,"ml":1},{"ty":"fl","o":{"a":0,"k":100},"r":1,"c":{"a":0,"k":[0.07058823529411765,0.1568627450980392,0.30980392156862746,1]}},{"ty":"tr","o":{"a":0,"k":100},"a":{"a":0,"k":[0,0]},"s":{"a":0,"k":[100,100]},"p":{"a":0,"k":[0,0]},"r":{"a":0,"k":0}}]},{"ty":"gr","nm":"pli3_Artboard 2 shape group","it":[{"ty":"sh","ks":{"a":0,"k":{"c":true,"v":[[84.107,153.376],[151.804,113.225],[190.347,185.91899999999998],[121.57700000000001,223.218]],"i":[[-7.522999999999996,29.721000000000004],[-29.833,-8.588999999999999],[9.230999999999995,-31.028999999999996],[28.845000000000013,9.347999999999985]],"o":[[7.6980000000000075,-30.412000000000006],[30.381,8.747],[-9.01400000000001,30.300999999999988],[-28.345000000000013,-9.186999999999983]]}}},{"ty":"sh","ks":{"a":0,"k":{"c":true,"v":[[181.585,183.235],[149.28900000000002,122.382],[92.36700000000002,155.905],[123.90700000000001,214.746]],"i":[[-7.479000000000013,25.456999999999994],[25.369,7.381],[6.549999999999997,-25.534999999999997],[-23.934999999999988,-7.689999999999998]],"o":[[7.628999999999991,-25.96799999999999],[-24.986000000000004,-7.2690000000000055],[-6.424999999999997,25.044999999999987],[24.287999999999982,7.804999999999978]]}}},{"ty":"st","o":{"a":0,"k":0},"w":{"a":0,"k":0},"c":{"a":0,"k":[0,0,0,0]},"lc":3,"lj":1,"ml":1},{"ty":"fl","o":{"a":0,"k":100},"r":1,"c":{"a":0,"k":[0.07058823529411765,0.1568627450980392,0.30980392156862746,1]}},{"ty":"tr","o":{"a":0,"k":100},"a":{"a":0,"k":[0,0]},"s":{"a":0,"k":[100,100]},"p":{"a":0,"k":[0,0]},"r":{"a":0,"k":0}}]},{"ty":"gr","nm":"pli3_Artboard 2 shape group","it":[{"ty":"sh","ks":{"a":0,"k":{"c":true,"v":[[287.425,219.726],[287.957,218.16],[284.842,212.219],[184.158,181.54899999999998],[181.08999999999997,191.94799999999998],[281.265,222.80299999999997]],"i":[[-0.8460000000000036,2.4879999999999995],[0,0],[2.5679999999999836,0.7820000000000107],[0,0],[0,0],[0,0]],"o":[[0,0],[0.8489999999999895,-2.4960000000000093],[0,0],[0,0],[0,0],[2.55600000000004,0.7860000000000298]]}}},{"ty":"st","o":{"a":0,"k":0},"w":{"a":0,"k":0},"c":{"a":0,"k":[0,0,0,0]},"lc":3,"lj":1,"ml":1},{"ty":"fl","o":{"a":0,"k":100},"r":1,"c":{"a":0,"k":[0.09019607843137255,0.2,0.44313725490196076,1]}},{"ty":"tr","o":{"a":0,"k":100},"a":{"a":0,"k":[0,0]},"s":{"a":0,"k":[100,100]},"p":{"a":0,"k":[0,0]},"r":{"a":0,"k":0}}]},{"ty":"gr","nm":"pli3_Artboard 2 shape group","it":[{"ty":"sh","ks":{"a":0,"k":{"c":true,"v":[[239.213,212.417],[250.94299999999998,203.597],[265.81399999999996,201.4],[269.64599999999996,180.935],[284.32099999999997,163.516],[297.289,168.333],[299.633,176.993],[307.33,182.322],[308.454,201.422],[299.485,206.707],[291.777,208.971],[298.92699999999996,190.41400000000002],[286.69499999999994,177.543],[276.78099999999995,206.567],[271.328,224.842],[264.549,228.50500000000002],[256.81199999999995,220.13100000000003],[248.18299999999996,219.83100000000002],[235.41299999999995,219.43300000000002],[224.84199999999996,216.40000000000003]],"i":[[-3.026999999999987,1.9120000000000061],[-5.792000000000002,2.2379999999999995],[-3.7299999999999613,2.983000000000004],[-3.3220000000000027,10.730999999999995],[-9.828000000000031,1.7630000000000052],[-2.333000000000027,-3.8830000000000098],[-2.218999999999994,-3.3549999999999898],[-2.826999999999998,-2.7960000000000207],[4.052999999999997,-5.2949999999999875],[4.622000000000014,-1.8379999999999939],[2.2600000000000477,-0.44300000000001205],[1.4470000000000027,6.119],[4.742000000000019,2.349000000000018],[1.2909999999999968,-9.74799999999999],[4.851999999999975,-5.341000000000008],[2.901999999999987,0.6049999999999898],[4.592000000000041,2.2539999999999907],[6.602000000000004,-0.09699999999997999],[4.474000000000018,0.507000000000005],[1.563999999999993,2.0049999999999955]],"o":[[5.173000000000002,-3.2690000000000055],[7.524999999999977,-2.907999999999987],[4.439999999999998,-3.5500000000000114],[0.5640000000000214,-1.820999999999998],[4.583000000000027,-0.8220000000000027],[1.8249999999999886,3.0389999999999873],[2.2180000000000177,3.3530000000000086],[4.488999999999976,4.4410000000000025],[-1.8899999999999864,2.469999999999999],[-2.822999999999979,1.122000000000014],[5.660000000000025,-5.431999999999988],[-1.511000000000024,-6.391999999999996],[-4.7450000000000045,8.929000000000002],[-0.86099999999999,6.4950000000000045],[-0.9329999999999927,1.0269999999999868],[-3.4560000000000173,-0.7199999999999989],[-1.507000000000005,-0.7400000000000091],[-4.123999999999995,0.060000000000002274],[-3.7680000000000007,-0.42799999999999727],[6.8040000000000305,-0.1850000000000307]]}}},{"ty":"st","o":{"a":0,"k":0},"w":{"a":0,"k":0},"c":{"a":0,"k":[0,0,0,0]},"lc":3,"lj":1,"ml":1},{"o":{"a":0,"k":100},"r":1},{"ty":"tr","o":{"a":0,"k":30},"a":{"a":0,"k":[0,0]},"s":{"a":0,"k":[100,100]},"p":{"a":0,"k":[0,0]},"r":{"a":0,"k":0}}]},{"ty":"gr","nm":"pli3_Artboard 2 shape group","it":[{"ty":"sh","ks":{"a":0,"k":{"c":true,"v":[[290.425,216.135],[312.552,209.999],[314.439,168.301],[297.24,148.32399999999998],[283.642,141.785],[271.04699999999997,172.389],[280.715,175.131],[298.928,190.414],[288.617,211.64]],"i":[[-0.6030000000000086,-1.4979999999999905],[-7.274000000000001,6.72999999999999],[4.214999999999975,9.170999999999992],[4.674000000000035,3.576999999999998],[4.2590000000000146,-0.6069999999999993],[-6.046999999999969,-6.4620000000000175],[-5.728000000000009,-1.8239999999999839],[-2.424000000000035,-10.25399999999999],[7.687999999999988,-5.64500000000001]],"o":[[4.569000000000017,0.40799999999998704],[12.110000000000014,-11.203000000000003],[-4.833000000000027,-10.514999999999986],[-5.798999999999978,-4.437999999999988],[-11.01400000000001,1.568000000000012],[1.978999999999985,2.116000000000014],[1.865000000000009,0.5939999999999941],[1.6970000000000027,7.1769999999999925],[0.6019999999999754,1.4990000000000236]]}}},{"ty":"st","o":{"a":0,"k":0},"w":{"a":0,"k":0},"c":{"a":0,"k":[0,0,0,0]},"lc":3,"lj":1,"ml":1},{"ty":"fl","o":{"a":0,"k":100},"r":1,"c":{"a":0,"k":[1,0.7607843137254902,0,1]}},{"ty":"tr","o":{"a":0,"k":100},"a":{"a":0,"k":[0,0]},"s":{"a":0,"k":[100,100]},"p":{"a":0,"k":[0,0]},"r":{"a":0,"k":0}}]},{"ty":"gr","nm":"pli3_Artboard 2 shape group","it":[{"ty":"sh","ks":{"a":0,"k":{"c":true,"v":[[198.774,193.626],[191.983,192.118],[188.042,193.66899999999998],[194.114,196.30299999999997]],"i":[[0,0],[2.5349999999999966,1.085000000000008],[-0.2330000000000041,-1.0779999999999745],[-1.6670000000000016,-0.053999999999973625]],"o":[[0,0],[-2.5360000000000014,-1.085000000000008],[0.2330000000000041,1.078000000000003],[1.6659999999999968,0.05400000000003047]]}}},{"ty":"st","o":{"a":0,"k":0},"w":{"a":0,"k":0},"c":{"a":0,"k":[0,0,0,0]},"lc":3,"lj":1,"ml":1},{"o":{"a":0,"k":100},"r":1},{"ty":"tr","o":{"a":0,"k":100},"a":{"a":0,"k":[0,0]},"s":{"a":0,"k":[100,100]},"p":{"a":0,"k":[0,0]},"r":{"a":0,"k":0}}]},{"ty":"gr","nm":"pli3_Artboard 2 shape group","it":[{"ty":"sh","ks":{"a":0,"k":{"c":true,"v":[[211.057,187.141],[225.333,182.492],[236.083,169.968],[240.159,173.459],[237.434,177.727],[237.388,177.615],[234.714,181.09300000000002],[206.529,194.888],[198.1,190.78900000000002]],"i":[[-3.437999999999988,0.7750000000000057],[-3.7290000000000134,3.0049999999999955],[-3.608000000000004,-0.09299999999998931],[-0.98599999999999,-1.7060000000000173],[0.907999999999987,-1.4230000000000018],[0.030000000000001137,0.015999999999991132],[1.1239999999999952,-1.641999999999996],[10.401999999999987,2.123000000000019],[1.9879999999999995,1.9559999999999889]],"o":[[7.542000000000002,-1.6990000000000123],[6.209000000000003,-5.003000000000014],[1.7050000000000125,0.04400000000001114],[-0.907999999999987,1.4230000000000018],[-0.003999999999990678,-0.054000000000002046],[-0.3009999999999877,-0.15399999999999636],[-5.7239999999999895,8.360000000000014],[-2.9819999999999993,-0.6090000000000089],[5.1340000000000146,-1.733000000000004]]}}},{"ty":"st","o":{"a":0,"k":0},"w":{"a":0,"k":0},"c":{"a":0,"k":[0,0,0,0]},"lc":3,"lj":1,"ml":1},{"o":{"a":0,"k":100},"r":1},{"ty":"tr","o":{"a":0,"k":30},"a":{"a":0,"k":[0,0]},"s":{"a":0,"k":[100,100]},"p":{"a":0,"k":[0,0]},"r":{"a":0,"k":0}}]},{"ty":"gr","nm":"pli3_Artboard 2 shape group","it":[{"ty":"sh","ks":{"a":0,"k":{"c":true,"v":[[266.975,132.386],[258.459,136.23],[256.543,122.29799999999999],[261.471,121.87999999999998],[264.455,123.15499999999999],[266.871,123.88299999999998],[266.691,128.832],[269.623,128.011],[270.256,128.684]],"i":[[2.686999999999955,-0.8269999999999982],[5.53000000000003,0.6040000000000134],[-3.2750000000000057,2.2240000000000038],[-1.7019999999999982,-0.5579999999999927],[-1.6529999999999632,-0.507000000000005],[-0.4479999999999791,-0.4129999999999967],[1.115000000000009,-3.213000000000008],[-0.7890000000000441,-0.41500000000000625],[-0.17599999999998772,-0.36000000000001364]],"o":[[0,0],[-4.950999999999993,-0.5409999999999968],[1.0919999999999845,-0.7420000000000044],[1.0049999999999955,0.3299999999999983],[1.5249999999999773,0.4680000000000035],[0.5609999999999786,0.5150000000000006],[0.9889999999999759,-0.9180000000000064],[0.12599999999997635,0.0660000000000025],[0.63900000000001,1.3019999999999925]]}}},{"ty":"st","o":{"a":0,"k":0},"w":{"a":0,"k":0},"c":{"a":0,"k":[0,0,0,0]},"lc":3,"lj":1,"ml":1},{"ty":"fl","o":{"a":0,"k":100},"r":1,"c":{"a":0,"k":[1,1,1,1]}},{"ty":"tr","o":{"a":0,"k":100},"a":{"a":0,"k":[0,0]},"s":{"a":0,"k":[100,100]},"p":{"a":0,"k":[0,0]},"r":{"a":0,"k":0}}]},{"ty":"gr","nm":"pli3_Artboard 2 shape group","it":[{"ty":"sh","ks":{"a":0,"k":{"c":true,"v":[[255.28,123.999],[251.988,109.939],[263.703,113.764],[272.161,119.166],[272.026,123.875],[269.931,127.365],[268.56,129.36599999999999],[263.294,134.51899999999998],[262.457,131.60199999999998],[260.593,128.13599999999997]],"i":[[1.481000000000023,1.0590000000000117],[-2.5349999999999966,1.980000000000004],[-10.298999999999978,-4.131],[-0.8290000000000077,-2.2579999999999956],[0.5589999999999691,-1.4680000000000035],[1.247000000000014,-1.7950000000000017],[0.33899999999999864,-0.46299999999999386],[2.8799999999999955,-2.1699999999999875],[0.42399999999997817,1.0980000000000132],[1.0429999999999495,1.3910000000000196]],"o":[[-4.562999999999988,-3.2609999999999957],[0.7239999999999895,-0.5660000000000025],[5.113999999999976,2.0520000000000067],[0.5059999999999718,1.3790000000000049],[-0.2880000000000109,0.7549999999999955],[-1.1059999999999945,1.5919999999999987],[-0.8149999999999977,1.1119999999999948],[-0.160000000000025,-0.8120000000000118],[-0.16300000000001091,-0.4230000000000018],[-1.795000000000016,-2.396999999999963]]}}},{"ty":"st","o":{"a":0,"k":0},"w":{"a":0,"k":0},"c":{"a":0,"k":[0,0,0,0]},"lc":3,"lj":1,"ml":1},{"ty":"fl","o":{"a":0,"k":100},"r":1,"c":{"a":0,"k":[0.09019607843137255,0.2,0.44313725490196076,1]}},{"ty":"tr","o":{"a":0,"k":100},"a":{"a":0,"k":[0,0]},"s":{"a":0,"k":[100,100]},"p":{"a":0,"k":[0,0]},"r":{"a":0,"k":0}}]},{"ty":"gr","nm":"pli3_Artboard 2 shape group","it":[{"ty":"sh","ks":{"a":0,"k":{"c":true,"v":[[264.839,128.334],[267.205,135.181],[276.145,139.125],[270.781,142.62],[255.37,142.883],[259.002,140.235],[261.418,131.81500000000003]],"i":[[0,0],[-1.649000000000001,-2.8470000000000084],[-1.2839999999999918,-0.4479999999999791],[3.4259999999999877,-0.8100000000000023],[1.9630000000000223,1.078000000000003],[-2.3570000000000277,1.240000000000009],[0.7300000000000182,2.141999999999996]],"o":[[0,0],[1.4909999999999854,2.5730000000000075],[1.2839999999999918,0.4480000000000075],[-3.4259999999999877,0.811000000000007],[-1.9629999999999939,-1.0790000000000077],[2.358000000000004,-1.240000000000009],[-0.7300000000000182,-2.1420000000000243]]}}},{"ty":"st","o":{"a":0,"k":0},"w":{"a":0,"k":0},"c":{"a":0,"k":[0,0,0,0]},"lc":3,"lj":1,"ml":1},{"ty":"fl","o":{"a":0,"k":100},"r":1,"c":{"a":0,"k":[1,1,1,1]}},{"ty":"tr","o":{"a":0,"k":100},"a":{"a":0,"k":[0,0]},"s":{"a":0,"k":[100,100]},"p":{"a":0,"k":[0,0]},"r":{"a":0,"k":0}}]},{"ty":"gr","nm":"pli3_Artboard 2 shape group","it":[{"ty":"sh","ks":{"a":0,"k":{"c":true,"v":[[196.466,187.658],[206.53,194.88899999999998],[234.715,181.094],[237.389,177.61599999999999],[229.10500000000002,199.92399999999998],[225.48800000000003,212.68099999999998],[224.43100000000004,215.588],[235.41400000000004,219.434],[248.18400000000005,219.832],[256.81300000000005,220.132],[264.55000000000007,228.506],[271.32900000000006,224.843],[276.78200000000004,206.56799999999998],[295.011,164.452],[299.24300000000005,156.653],[274.3960000000001,137.32299999999998],[260.3950000000001,137.61299999999997],[253.6500000000001,138.52299999999997],[239.61800000000008,142.14699999999996],[208.51100000000008,178.52899999999997]],"i":[[-0.09399999999999409,-3.519999999999982],[-4.448999999999984,-0.9089999999999918],[-5.724000000000018,8.359999999999985],[-0.30100000000001614,-0.15399999999999636],[2.7109999999999843,-11.685000000000002],[2.5929999999999893,-3.9790000000000134],[-0.2540000000000191,-1.0670000000000073],[-4.236999999999995,-0.48099999999999454],[-4.123999999999995,0.06100000000000705],[-1.507000000000005,-0.7390000000000043],[-3.4560000000000173,-0.7199999999999989],[-0.9329999999999927,1.0270000000000152],[-0.8599999999999568,6.4950000000000045],[-8.024999999999977,10.472999999999985],[-0.10600000000005139,2.951999999999998],[11.430000000000007,1.1000000000000227],[5.258999999999958,-0.4959999999999809],[2.4050000000000296,-0.42099999999999227],[4.138000000000005,-1.8930000000000007],[18.061000000000007,-11.751000000000005]],"o":[[0.09000000000000341,3.3619999999999948],[10.401999999999987,2.1229999999999905],[1.1239999999999952,-1.641999999999996],[0.6800000000000068,0.3480000000000132],[-1.3870000000000005,5.978000000000009],[-0.5869999999999891,0.9019999999999868],[0.6370000000000005,2.6709999999999923],[4.4739999999999895,0.5080000000000098],[6.602000000000004,-0.09600000000000364],[4.5919999999999845,2.2539999999999907],[2.901999999999987,0.6049999999999898],[4.851999999999975,-5.341000000000008],[2,-15.099999999999994],[2.434000000000026,-3.1759999999999877],[0.3100000000000023,-8.664999999999992],[-3.1329999999999814,-0.3009999999999877],[-2.1019999999999754,0.1980000000000075],[-5.832999999999998,1.0200000000000102],[-16.687000000000012,7.634999999999991],[-6.210000000000093,4.041000000000025]]}}},{"ty":"st","o":{"a":0,"k":0},"w":{"a":0,"k":0},"c":{"a":0,"k":[0,0,0,0]},"lc":3,"lj":1,"ml":1},{"ty":"fl","o":{"a":0,"k":100},"r":1,"c":{"a":0,"k":[1,0.7607843137254902,0,1]}},{"ty":"tr","o":{"a":0,"k":100},"a":{"a":0,"k":[0,0]},"s":{"a":0,"k":[100,100]},"p":{"a":0,"k":[0,0]},"r":{"a":0,"k":0}}]},{"ty":"gr","nm":"pli3_Artboard 2 shape group","it":[{"ty":"sh","ks":{"a":0,"k":{"c":true,"v":[[235.018,207.151],[263.922,258.755],[279.59000000000003,301.957],[282.757,302.44],[286.339,300.49399999999997],[287.106,277.522],[283.834,260.265],[275.979,242.48],[269.859,219.36599999999999],[262.24899999999997,199.09199999999998]],"i":[[9.076999999999998,-2.687000000000012],[-9.172000000000025,-20.591999999999985],[-3.701999999999998,-13.02600000000001],[-1.4969999999999573,0.20199999999999818],[-0.3190000000000168,0.36400000000003274],[0.521000000000015,5.7099999999999795],[2.3489999999999895,7.5120000000000005],[3.4279999999999973,8.900999999999982],[3.413000000000011,11.564999999999998],[3.862000000000023,8.454000000000008]],"o":[[9.490000000000009,13.814999999999998],[6.930999999999983,15.560999999999979],[0.4970000000000141,0.228999999999985],[2.041999999999973,-0.27499999999997726],[1.47199999999998,-9.348000000000013],[-0.3340000000000032,-3.656000000000006],[-2.630999999999972,-8.414999999999992],[-3.5579999999999927,-9.239000000000004],[-1.4019999999999868,-4.751000000000005],[-9.075999999999965,2.686000000000007]]}}},{"ty":"st","o":{"a":0,"k":0},"w":{"a":0,"k":0},"c":{"a":0,"k":[0,0,0,0]},"lc":3,"lj":1,"ml":1},{"ty":"fl","o":{"a":0,"k":100},"r":1,"c":{"a":0,"k":[0.08235294117647059,0.18823529411764706,0.3764705882352941,1]}},{"ty":"tr","o":{"a":0,"k":100},"a":{"a":0,"k":[0,0]},"s":{"a":0,"k":[100,100]},"p":{"a":0,"k":[0,0]},"r":{"a":0,"k":0}}]},{"ty":"gr","nm":"pli3_Artboard 2 shape group","it":[{"ty":"sh","ks":{"a":0,"k":{"c":true,"v":[[252.132,202.423],[229.602,206.585],[240.525,231.119],[234.562,244.577],[241.32600000000002,262.183],[237.53900000000002,274.001],[239.394,290.166],[232.853,299.201],[233.863,306.178],[236.629,306.177],[238.521,306.081],[242.46499999999997,293.361],[245.20399999999998,278.471],[246.45399999999998,248.636],[252.46499999999997,222.289]],"i":[[0.9759999999999991,0.8909999999999911],[9.533999999999992,-5.563000000000017],[1.3050000000000068,-4.998999999999995],[-0.03200000000001069,-6.171999999999997],[0.12699999999998113,-8.026999999999987],[0.6949999999999932,-6.557999999999993],[1.2600000000000193,-5.742000000000019],[4.443999999999988,-3.3350000000000364],[-0.34899999999998954,-2.2889999999999873],[-0.9639999999999986,0.028999999999996362],[-0.6099999999999852,0.043000000000006366],[-1.2860000000000014,5.1410000000000196],[-0.575000000000017,4.635999999999967],[-1.6479999999999961,12.096000000000032],[-2.4420000000000073,15.211000000000013]],"o":[[-3.9610000000000127,-3.6210000000000093],[11.012,11.840000000000003],[-1.4749999999999943,5.649000000000001],[0.03899999999998727,7.586000000000013],[-0.08299999999999841,5.307999999999993],[-0.8220000000000027,7.7590000000000146],[-0.5420000000000016,2.4700000000000273],[0.3269999999999982,2.3559999999999945],[0.8779999999999859,0.02600000000001046],[0.6510000000000105,-0.01999999999998181],[1.218999999999994,-3.274000000000001],[1.3520000000000039,-5.406000000000006],[2.0260000000000105,-16.321000000000026],[1.4590000000000032,-10.712999999999994],[2.651000000000039,-16.504999999999995]]}}},{"ty":"st","o":{"a":0,"k":0},"w":{"a":0,"k":0},"c":{"a":0,"k":[0,0,0,0]},"lc":3,"lj":1,"ml":1},{"o":{"a":0,"k":100},"r":1},{"ty":"tr","o":{"a":0,"k":30},"a":{"a":0,"k":[0,0]},"s":{"a":0,"k":[100,100]},"p":{"a":0,"k":[0,0]},"r":{"a":0,"k":0}}]},{"ty":"gr","nm":"pli3_Artboard 2 shape group","it":[{"ty":"sh","ks":{"a":0,"k":{"c":true,"v":[[228.215,207.409],[228.567,254.185],[233.864,306.177],[236.63,306.17600000000004],[238.522,306.08000000000004],[242.46599999999998,293.36],[245.20499999999998,278.471],[246.45499999999998,248.636],[252.46599999999998,222.289],[252.13199999999998,202.423]],"i":[[10.036000000000001,-6.167999999999978],[-0.8689999999999998,-16.718000000000018],[-2.4010000000000105,-15.769000000000005],[-0.9639999999999986,0.028999999999996362],[-0.6099999999999852,0.043000000000006366],[-1.2860000000000014,5.1410000000000196],[-0.575000000000017,4.634999999999991],[-1.6479999999999961,12.096000000000032],[-2.4420000000000073,15.211000000000013],[0.9759999999999991,0.8919999999999959]],"o":[[-0.5310000000000059,14.40700000000001],[0.9780000000000086,18.826000000000022],[0.8789999999999907,0.02600000000001046],[0.6510000000000105,-0.01999999999998181],[1.218999999999994,-3.274000000000001],[1.3520000000000039,-5.406000000000006],[2.0260000000000105,-16.321000000000026],[1.4590000000000032,-10.712999999999994],[2.649000000000001,-16.50399999999999],[-4.152999999999963,-3.796999999999997]]}}},{"ty":"st","o":{"a":0,"k":0},"w":{"a":0,"k":0},"c":{"a":0,"k":[0,0,0,0]},"lc":3,"lj":1,"ml":1},{"ty":"fl","o":{"a":0,"k":100},"r":1,"c":{"a":0,"k":[0.08235294117647059,0.18823529411764706,0.3764705882352941,1]}},{"ty":"tr","o":{"a":0,"k":100},"a":{"a":0,"k":[0,0]},"s":{"a":0,"k":[100,100]},"p":{"a":0,"k":[0,0]},"r":{"a":0,"k":0}}]},{"ty":"gr","nm":"pli3_Artboard 2 shape group","it":[{"ty":"sh","ks":{"a":0,"k":{"c":true,"v":[[279.658,299.335],[282.36,306.45799999999997],[284.451,306.01399999999995],[285.07000000000005,305.40199999999993],[284.797,298.74699999999996]],"i":[[0,0],[0,0],[-1.3670000000000186,1.365000000000009],[0,0],[0,0]],"o":[[0.45699999999999363,0.3620000000000232],[0,0],[1.3670000000000186,-1.365000000000009],[0,0],[0,0]]}}},{"ty":"st","o":{"a":0,"k":0},"w":{"a":0,"k":0},"c":{"a":0,"k":[0,0,0,0]},"lc":3,"lj":1,"ml":1},{"o":{"a":0,"k":100},"r":1},{"ty":"tr","o":{"a":0,"k":100},"a":{"a":0,"k":[0,0]},"s":{"a":0,"k":[100,100]},"p":{"a":0,"k":[0,0]},"r":{"a":0,"k":0}}]},{"ty":"gr","nm":"pli3_Artboard 2 shape group","it":[{"ty":"sh","ks":{"a":0,"k":{"c":true,"v":[[284.863,304.412],[286.115,306.412],[286.40500000000003,308.284],[284.73100000000005,314.046],[277.27700000000004,315.902],[278.095,313.977],[280.96400000000006,311.2],[281.79800000000006,305.25399999999996]],"i":[[0,0],[0,0],[0.16599999999999682,-0.63900000000001],[0.3779999999999859,-0.8480000000000132],[0,0],[-1.4389999999999645,1.0559999999999832],[-0.5040000000000191,1.5539999999999736],[0,0]],"o":[[0,0],[0.35000000000002274,0.5590000000000259],[-0.43200000000001637,1.6669999999999732],[-0.5149999999999864,1.1539999999999964],[0,0],[1.4379999999999882,-1.0559999999999832],[0.5049999999999955,-1.5539999999999736],[0,0]]}}},{"ty":"st","o":{"a":0,"k":0},"w":{"a":0,"k":0},"c":{"a":0,"k":[0,0,0,0]},"lc":3,"lj":1,"ml":1},{"ty":"fl","o":{"a":0,"k":100},"r":1,"c":{"a":0,"k":[0.08235294117647059,0.18823529411764706,0.3764705882352941,1]}},{"ty":"tr","o":{"a":0,"k":100},"a":{"a":0,"k":[0,0]},"s":{"a":0,"k":[100,100]},"p":{"a":0,"k":[0,0]},"r":{"a":0,"k":0}}]},{"ty":"gr","nm":"pli3_Artboard 2 shape group","it":[{"ty":"sh","ks":{"a":0,"k":{"c":true,"v":[[234.35,304.418],[235.01399999999998,309.246],[237.85299999999998,309.12899999999996],[238.32699999999997,303.83099999999996]],"i":[[0,0],[0,0],[-1.1399999999999864,0.7170000000000414],[0,0]],"o":[[0,0],[0,0],[0,0],[0,0]]}}},{"ty":"st","o":{"a":0,"k":0},"w":{"a":0,"k":0},"c":{"a":0,"k":[0,0,0,0]},"lc":3,"lj":1,"ml":1},{"o":{"a":0,"k":100},"r":1},{"ty":"tr","o":{"a":0,"k":100},"a":{"a":0,"k":[0,0]},"s":{"a":0,"k":[100,100]},"p":{"a":0,"k":[0,0]},"r":{"a":0,"k":0}}]},{"ty":"gr","nm":"pli3_Artboard 2 shape group","it":[{"ty":"sh","ks":{"a":0,"k":{"c":true,"v":[[234.752,308.373],[223.864,314.05199999999996],[233.649,313.87999999999994],[238.64600000000002,311.90399999999994],[237.36300000000003,307.60799999999995]],"i":[[0,0],[0.1740000000000066,-0.7779999999999632],[-2.8880000000000052,-0.10499999999996135],[0.2639999999999816,1.22199999999998],[0,0]],"o":[[0,0],[-0.17300000000000182,0.7789999999999964],[2.8880000000000052,0.10500000000001819],[-0.26499999999998636,-1.22199999999998],[0,0]]}}},{"ty":"st","o":{"a":0,"k":0},"w":{"a":0,"k":0},"c":{"a":0,"k":[0,0,0,0]},"lc":3,"lj":1,"ml":1},{"ty":"fl","o":{"a":0,"k":100},"r":1,"c":{"a":0,"k":[0.08235294117647059,0.18823529411764706,0.3764705882352941,1]}},{"ty":"tr","o":{"a":0,"k":100},"a":{"a":0,"k":[0,0]},"s":{"a":0,"k":[100,100]},"p":{"a":0,"k":[0,0]},"r":{"a":0,"k":0}}]}],"op":200},{"ty":4,"nm":"pli3-01","ip":0,"st":0,"ind":1,"hix":2,"ks":{"o":{"a":0,"k":100},"or":{"a":0,"k":[0,0,0]},"a":{"a":0,"k":[275,200,0]},"p":{"s":true,"x":{"a":0,"k":260},"y":{"a":0,"k":200}},"rx":{"a":0,"k":0},"ry":{"a":0,"k":0},"rz":{"a":0,"k":0},"s":{"a":0,"k":[100,100,100]}},"shapes":[{"ty":"gr","nm":"pli3-01 shape group","it":[{"ty":"sh","ks":{"a":0,"k":{"c":true,"v":[[197.422,314.192],[207.332,310.515],[204.453,300.344],[203.89600000000002,300.098],[205.37900000000002,293.716],[205.991,293.694],[213.13400000000001,285.42400000000004],[205.686,278.454],[205.06300000000002,278.543],[203.33800000000002,272.449],[203.88800000000003,272.10200000000003],[206.35000000000002,261.45500000000004],[196.32800000000003,259.55400000000003],[195.82100000000003,259.947],[191.35000000000002,255.774],[191.675,255.201],[188.79600000000002,245.03],[178.88600000000002,248.707],[178.61500000000004,249.308],[172.60800000000003,248.161],[172.62600000000003,247.52],[165.17700000000002,240.55100000000002],[158.03400000000002,248.82100000000003],[158.079,249.47000000000003],[152.14100000000002,251.67400000000004],[151.84500000000003,251.11900000000003],[141.82300000000004,249.21800000000002],[139.36100000000005,259.865],[139.70400000000004,260.372],[135.42700000000005,265.33500000000004],[134.90000000000006,265.03000000000003],[124.99000000000007,268.70700000000005],[127.86900000000007,278.87800000000004],[128.42600000000007,279.124],[126.94300000000007,285.50600000000003],[126.33100000000007,285.528],[119.18800000000007,293.798],[126.63600000000008,300.767],[127.25900000000009,300.678],[128.9840000000001,306.772],[128.43400000000008,307.11899999999997],[125.97200000000008,317.76599999999996],[135.99400000000009,319.667],[136.5010000000001,319.274],[140.9720000000001,323.447],[140.6470000000001,324.02],[143.5260000000001,334.191],[153.4360000000001,330.51399999999995],[153.70700000000008,329.91299999999995],[159.71400000000008,331.05999999999995],[159.69600000000008,331.70099999999996],[167.1440000000001,338.66999999999996],[174.2870000000001,330.4],[174.2420000000001,329.751],[180.1800000000001,327.54699999999997],[180.47600000000008,328.102],[190.49800000000008,330.003],[192.96000000000006,319.356],[192.61700000000008,318.849],[196.89400000000006,313.88599999999997]],"i":[[-0.18299999999999272,-0.09300000000001774],[-1.9410000000000025,3.8240000000000123],[3.5319999999999823,1.7930000000000064],[0.1869999999999834,0.07499999999998863],[-0.33199999999999363,2.1329999999999814],[-0.20599999999998886,0.01799999999997226],[0.08400000000000318,4.20799999999997],[4.028999999999996,-0.35899999999998045],[0.20599999999998886,-0.03699999999997772],[0.7270000000000039,1.9710000000000036],[-0.18000000000000682,0.12599999999997635],[2.0870000000000175,3.464999999999975],[3.4470000000000027,-2.4149999999999636],[0.1640000000000157,-0.13599999999996726],[1.6160000000000139,1.2730000000000246],[-0.09999999999999432,0.1980000000000075],[3.5319999999999823,1.792999999999978],[1.9410000000000025,-3.823999999999984],[0.08399999999997476,-0.20199999999999818],[2.0190000000000055,0.2109999999999843],[0.003999999999990678,0.2150000000000034],[4.030000000000001,-0.36000000000001364],[-0.08400000000000318,-4.207999999999998],[-0.02199999999999136,-0.21399999999999864],[1.931999999999988,-0.8910000000000196],[0.10899999999998045,0.1810000000000116],[3.4470000000000027,-2.414999999999992],[-2.0870000000000175,-3.464999999999975],[-0.11899999999999977,-0.16300000000001091],[1.320999999999998,-1.7789999999999964],[0.18299999999999272,0.09300000000001774],[1.941999999999993,-3.8240000000000123],[-3.5320000000000107,-1.7930000000000064],[-0.18700000000001182,-0.07499999999998863],[0.33200000000000784,-2.1340000000000146],[0.20599999999998886,-0.01799999999997226],[-0.08400000000000318,-4.20799999999997],[-4.029000000000011,0.35899999999998045],[-0.20600000000000307,0.03699999999997772],[-0.7270000000000039,-1.9710000000000036],[0.18000000000000682,-0.1269999999999527],[-2.0870000000000033,-3.464999999999975],[-3.4470000000000027,2.4149999999999636],[-0.1640000000000157,0.13599999999996726],[-1.6160000000000139,-1.2730000000000246],[0.09999999999999432,-0.19799999999997908],[-3.5309999999999775,-1.7930000000000064],[-1.9410000000000025,3.8240000000000123],[-0.08399999999997476,0.20199999999999818],[-2.0180000000000007,-0.21100000000001273],[-0.003999999999990678,-0.21500000000003183],[-4.028999999999996,0.35899999999998045],[0.08400000000000318,4.20799999999997],[0.02199999999999136,0.21399999999999864],[-1.931999999999988,0.8910000000000196],[-0.10899999999998045,-0.18099999999998317],[-3.4470000000000027,2.4149999999999636],[2.0870000000000175,3.464999999999975],[0.11899999999999977,0.16399999999998727],[-1.320999999999998,1.77800000000002]],"o":[[3.5320000000000107,1.7930000000000064],[1.9420000000000073,-3.8240000000000123],[-0.18299999999999272,-0.09300000000001774],[0.6560000000000059,-2.1159999999999854],[0.20199999999999818,-0.0009999999999763531],[4.028999999999996,-0.35899999999998045],[-0.08400000000000318,-4.208000000000027],[-0.21100000000001273,0.019000000000005457],[-0.42099999999999227,-2.0860000000000127],[0.18500000000000227,-0.10800000000000409],[3.4470000000000027,-2.4150000000000205],[-2.087999999999994,-3.464999999999975],[-0.1769999999999925,0.12400000000002365],[-1.3619999999999948,-1.5049999999999955],[0.11400000000000432,-0.18600000000000705],[1.9420000000000073,-3.8240000000000123],[-3.5320000000000107,-1.7930000000000064],[-0.10099999999999909,0.1980000000000075],[-1.9809999999999945,-0.5529999999999973],[0.01300000000000523,-0.21299999999999386],[-0.08400000000000318,-4.207999999999998],[-4.028999999999996,0.35900000000000887],[0.003999999999990678,0.21999999999999886],[-2.0209999999999866,0.5759999999999934],[-0.09200000000001296,-0.18799999999998818],[-2.087999999999994,-3.4650000000000034],[-3.4470000000000027,2.414999999999992],[0.10699999999999932,0.17700000000002092],[-1.5269999999999868,1.5269999999999868],[-0.17099999999999227,-0.10700000000002774],[-3.5320000000000107,-1.7930000000000064],[-1.941999999999993,3.8240000000000123],[0.18300000000000693,0.09300000000001774],[-0.6560000000000059,2.1159999999999854],[-0.20199999999999818,0.0009999999999763531],[-4.028999999999996,0.35899999999998045],[0.08400000000000318,4.208000000000027],[0.20999999999999375,-0.019000000000005457],[0.4210000000000065,2.0860000000000127],[-0.18500000000000227,0.10800000000000409],[-3.4470000000000027,2.4150000000000205],[2.088000000000008,3.464999999999975],[0.1769999999999925,-0.12400000000002365],[1.3619999999999948,1.5049999999999955],[-0.11299999999999955,0.18599999999997863],[-1.9420000000000073,3.8240000000000123],[3.5320000000000107,1.7930000000000064],[0.10099999999999909,-0.19799999999997908],[1.9809999999999945,0.5529999999999973],[-0.01300000000000523,0.21300000000002228],[0.08400000000000318,4.208000000000027],[4.028999999999996,-0.35899999999998045],[-0.003999999999990678,-0.22000000000002728],[2.0209999999999866,-0.5760000000000218],[0.09200000000001296,0.18799999999998818],[2.087999999999994,3.464999999999975],[3.4470000000000027,-2.4149999999999636],[-0.10699999999999932,-0.17700000000002092],[1.5269999999999868,-1.5269999999999868],[0.1719999999999402,0.10800000000006094]]}}},{"ty":"sh","ks":{"a":0,"k":{"c":true,"v":[[153.397,314.75],[142.944,277.822],[178.92499999999998,264.47],[189.378,301.398]],"i":[[12.823000000000008,6.511000000000024],[-7.049999999999983,13.884999999999991],[-12.822000000000003,-6.510000000000048],[7.050000000000011,-13.884999999999991]],"o":[[-12.823000000000008,-6.509999999999991],[7.049000000000007,-13.884000000000015],[12.823000000000008,6.509999999999991],[-7.048999999999978,13.884999999999991]]}}},{"ty":"st","o":{"a":0,"k":0},"w":{"a":0,"k":0},"c":{"a":0,"k":[0,0,0,0]},"lc":3,"lj":1,"ml":1},{"ty":"fl","o":{"a":0,"k":100},"r":1,"c":{"a":0,"k":[1,0.7607843137254902,0,1]}},{"ty":"tr","o":{"a":0,"k":100},"a":{"a":0,"k":[0,0]},"s":{"a":0,"k":[100,100]},"p":{"a":0,"k":[0,0]},"r":{"a":0,"k":0}}]},{"ty":"gr","nm":"pli3-01 shape group","it":[{"ty":"sh","ks":{"a":0,"k":{"c":true,"v":[[202.192,293.262],[209.335,284.992],[201.887,278.023],[201.264,278.112],[199.53900000000002,272.01800000000003],[200.08900000000003,271.67100000000005],[205.36900000000003,260.18800000000005],[192.52900000000002,259.124],[192.02200000000002,259.517],[187.55100000000002,255.344],[187.876,254.771],[188.328,248.444],[178.488,266.106],[185.58,300.968],[158.87400000000002,316.882],[157.44200000000004,320.527],[152.97900000000004,330.198],[155.91600000000005,330.62899999999996],[155.89800000000005,331.27],[165.84000000000006,338.666],[170.48900000000006,329.969],[170.44400000000007,329.32099999999997],[176.38200000000006,327.11699999999996],[176.67800000000005,327.67199999999997],[189.45500000000004,330.19399999999996],[189.16100000000003,318.92599999999993],[188.81800000000004,318.4189999999999],[193.09500000000003,313.4559999999999],[193.622,313.7609999999999],[203.532,310.0839999999999],[200.65300000000002,299.9129999999999],[200.09600000000003,299.6669999999999],[201.57900000000004,293.2849999999999]],"i":[[-0.20600000000001728,0.01799999999997226],[0.08400000000000318,4.20799999999997],[4.028999999999996,-0.36000000000001364],[0.20499999999998408,-0.03699999999997772],[0.7270000000000039,1.9710000000000036],[-0.18000000000000682,0.1269999999999527],[2.431999999999988,3.2320000000000277],[3.4470000000000027,-2.4149999999999636],[0.1640000000000157,-0.13599999999996726],[1.6160000000000139,1.2730000000000246],[-0.09999999999999432,0.1980000000000075],[0.6980000000000075,1.9509999999999934],[3.225999999999999,-5.91700000000003],[6.393999999999977,-12.593999999999994],[10.516999999999996,0.7510000000000332],[0.5019999999999811,-1.204999999999984],[1.5509999999999877,-3.1990000000000123],[-0.9819999999999993,-0.10199999999997544],[-0.003999999999990678,-0.21500000000003183],[-7.302999999999997,0.3879999999999768],[0.08500000000000796,4.208000000000027],[0.02199999999999136,0.21300000000002228],[-1.931999999999988,0.8910000000000196],[-0.10899999999998045,-0.18099999999998317],[-3.4469999999999743,2.4150000000000205],[2.0880000000000223,3.465000000000032],[0.11899999999999977,0.16399999999998727],[-1.320999999999998,1.77800000000002],[-0.18299999999999272,-0.09300000000001774],[-1.9410000000000025,3.8240000000000123],[3.5309999999999775,1.7930000000000064],[0.1869999999999834,0.07499999999998863],[-0.33199999999999363,2.1329999999999814]],"o":[[4.028999999999996,-0.35899999999998045],[-0.08400000000000318,-4.208000000000027],[-0.21100000000001273,0.019000000000005457],[-0.42099999999999227,-2.0860000000000127],[0.18500000000000227,-0.10800000000000409],[3.4470000000000027,-2.4150000000000205],[-4.6159999999999854,-6.134999999999991],[-0.1769999999999925,0.12400000000002365],[-1.3619999999999948,-1.5049999999999955],[0.11400000000000432,-0.18600000000000705],[1.056999999999988,-2.080999999999989],[-3.3300000000000125,5.860000000000014],[10.228999999999985,7.495999999999981],[-5.418000000000006,10.672000000000025],[-0.4689999999999941,1.2169999999999845],[-1.3629999999999995,3.269999999999982],[0.9749999999999943,0.18400000000002592],[-0.01300000000000523,0.21300000000002228],[0.08400000000000318,4.208000000000027],[4.039999999999992,-0.21399999999999864],[-0.003999999999990678,-0.22000000000002728],[2.0209999999999866,-0.5760000000000218],[0.09200000000001296,0.18799999999998818],[2.087999999999994,3.464999999999975],[3.4470000000000027,-2.4150000000000205],[-0.10699999999999932,-0.17799999999999727],[1.5269999999999868,-1.5269999999999868],[0.17099999999999227,0.10700000000002774],[3.5320000000000107,1.7930000000000064],[1.9410000000000025,-3.8240000000000123],[-0.18299999999999272,-0.09300000000001774],[0.6560000000000059,-2.1159999999999854],[0.2039999999999509,-0.0009999999999195097]]}}},{"ty":"st","o":{"a":0,"k":0},"w":{"a":0,"k":0},"c":{"a":0,"k":[0,0,0,0]},"lc":3,"lj":1,"ml":1},{"ty":"fl","o":{"a":0,"k":100},"r":1,"c":{"a":0,"k":[0.8588235294117647,0.6352941176470588,0.011764705882352941,1]}},{"ty":"tr","o":{"a":0,"k":100},"a":{"a":0,"k":[0,0]},"s":{"a":0,"k":[100,100]},"p":{"a":0,"k":[0,0]},"r":{"a":0,"k":0}}]},{"ty":"gr","nm":"pli3-01 shape group","it":[{"ty":"sh","ks":{"a":0,"k":{"c":true,"v":[[193.624,313.76],[203.534,310.08299999999997],[200.655,299.912],[200.098,299.666],[201.58100000000002,293.284],[202.193,293.262],[209.336,284.992],[201.888,278.022],[201.26500000000001,278.111],[199.54000000000002,272.017],[200.09000000000003,271.67],[202.55200000000002,261.023],[192.53000000000003,259.122],[192.02300000000002,259.515],[187.55200000000002,255.34199999999998],[187.877,254.76899999999998],[188.79600000000002,245.02999999999997],[175.08700000000002,248.27499999999998],[174.81600000000003,248.87599999999998],[168.80900000000003,247.72899999999998],[168.82700000000003,247.088],[165.94700000000003,240.524],[154.23600000000002,248.389],[154.281,249.038],[148.34300000000002,251.24200000000002],[148.04700000000003,250.687],[138.02500000000003,248.787],[135.56300000000005,259.434],[135.90600000000003,259.94100000000003],[131.62900000000005,264.90400000000005],[131.10200000000006,264.59900000000005],[121.19200000000006,268.27600000000007],[124.07100000000007,278.44700000000006],[124.62800000000007,278.69300000000004],[123.14500000000007,285.07500000000005],[122.53300000000007,285.09700000000004],[115.39000000000007,293.367],[122.83900000000007,300.336],[123.46200000000007,300.247],[125.18700000000007,306.341],[124.63700000000007,306.688],[122.17500000000007,317.335],[134.62200000000007,319.995],[132.70400000000006,318.843],[137.17500000000007,323.016],[136.85000000000008,323.589],[139.72900000000007,333.76],[149.63900000000007,330.08299999999997],[149.91000000000005,329.48199999999997],[155.91700000000006,330.62899999999996],[155.89900000000006,331.27],[163.34700000000007,338.239],[170.49000000000007,329.969],[170.44500000000008,329.32],[176.38300000000007,327.116],[176.67900000000006,327.671],[186.70100000000005,329.572],[189.16300000000004,318.925],[188.82000000000005,318.418],[193.09700000000004,313.455]],"i":[[-0.18299999999999272,-0.09300000000001774],[-1.9410000000000025,3.8240000000000123],[3.5309999999999775,1.7930000000000064],[0.1869999999999834,0.07499999999998863],[-0.33199999999999363,2.1340000000000146],[-0.20599999999998886,0.01799999999997226],[0.08400000000000318,4.20799999999997],[4.028999999999996,-0.35899999999998045],[0.20499999999998408,-0.03699999999997772],[0.7270000000000039,1.9710000000000036],[-0.18000000000000682,0.1269999999999527],[2.0870000000000175,3.464999999999975],[3.4470000000000027,-2.4149999999999636],[0.1640000000000157,-0.13599999999996726],[1.6160000000000139,1.2730000000000246],[-0.09999999999999432,0.1980000000000075],[3.5600000000000023,1.7379999999999995],[1.9420000000000073,-3.8240000000000123],[0.08399999999997476,-0.20199999999999818],[2.0190000000000055,0.2109999999999843],[0.003999999999990678,0.2150000000000034],[4.043999999999983,0.07899999999997931],[-0.08399999999997476,-4.207999999999998],[-0.02199999999999136,-0.21399999999999864],[1.931999999999988,-0.8910000000000196],[0.10899999999998045,0.1810000000000116],[3.4470000000000027,-2.415999999999997],[-2.0870000000000175,-3.465000000000032],[-0.11899999999999977,-0.16300000000001091],[1.320999999999998,-1.77800000000002],[0.18299999999999272,0.09300000000001774],[1.9410000000000025,-3.8240000000000123],[-3.531000000000006,-1.7930000000000064],[-0.1869999999999976,-0.07499999999998863],[0.33200000000000784,-2.1340000000000146],[0.20599999999998886,-0.01799999999997226],[-0.08400000000000318,-4.20799999999997],[-4.030000000000001,0.35899999999998045],[-0.20600000000000307,0.03699999999997772],[-0.7279999999999944,-1.9710000000000036],[0.1799999999999926,-0.1269999999999527],[-2.0870000000000033,-3.464999999999975],[-3.4480000000000075,2.4149999999999636],[-0.16399999999998727,0.13599999999996726],[-1.6160000000000139,-1.2730000000000246],[0.09999999999999432,-0.19799999999997908],[-3.5309999999999775,-1.7930000000000064],[-1.9410000000000025,3.8240000000000123],[-0.08399999999997476,0.20199999999999818],[-2.0190000000000055,-0.21100000000001273],[-0.003999999999990678,-0.21500000000003183],[-4.028999999999996,0.35899999999998045],[0.08400000000000318,4.20799999999997],[0.02199999999999136,0.21399999999999864],[-1.931999999999988,0.8910000000000196],[-0.10899999999998045,-0.18099999999998317],[-3.4470000000000027,2.4149999999999636],[2.0870000000000175,3.464999999999975],[0.11899999999999977,0.16399999999998727],[-1.320999999999998,1.77800000000002]],"o":[[3.5320000000000107,1.7930000000000064],[1.9420000000000073,-3.8240000000000123],[-0.18299999999999272,-0.09300000000001774],[0.6560000000000059,-2.1159999999999854],[0.20199999999999818,-0.0009999999999763531],[4.028999999999996,-0.35899999999998045],[-0.08400000000000318,-4.208000000000027],[-0.21100000000001273,0.019000000000005457],[-0.42099999999999227,-2.0849999999999795],[0.18500000000000227,-0.10800000000000409],[3.4470000000000027,-2.4150000000000205],[-2.087999999999994,-3.464999999999975],[-0.1769999999999925,0.12400000000002365],[-1.3619999999999948,-1.5049999999999955],[0.11400000000000432,-0.18600000000000705],[1.9420000000000073,-3.8240000000000123],[-8.234000000000009,-4.0190000000000055],[-0.10099999999999909,0.1980000000000075],[-1.9809999999999945,-0.5529999999999973],[0.01300000000000523,-0.21299999999999386],[-0.08400000000000318,-4.207999999999998],[-8.819999999999993,-0.17099999999999227],[0.003999999999990678,0.21999999999999886],[-2.0209999999999866,0.5759999999999934],[-0.09200000000001296,-0.18799999999998818],[-2.087999999999994,-3.4650000000000034],[-3.4470000000000027,2.414999999999992],[0.10699999999999932,0.17799999999999727],[-1.5269999999999868,1.5269999999999868],[-0.17099999999999227,-0.10700000000002774],[-3.5319999999999965,-1.7930000000000064],[-1.941999999999993,3.8240000000000123],[0.18300000000000693,0.09300000000001774],[-0.6560000000000059,2.1159999999999854],[-0.20199999999999818,0.0009999999999763531],[-4.028999999999996,0.35899999999998045],[0.08400000000000318,4.208000000000027],[0.20999999999999375,-0.019000000000005457],[0.4210000000000065,2.0860000000000127],[-0.18500000000000227,0.10800000000000409],[-3.4470000000000027,2.4150000000000205],[2.087999999999994,3.464999999999975],[0.1769999999999925,-0.12400000000002365],[1.3619999999999948,1.5049999999999955],[-0.11299999999999955,0.18599999999997863],[-1.9420000000000073,3.8240000000000123],[3.5320000000000107,1.7930000000000064],[0.10099999999999909,-0.19799999999997908],[1.9809999999999945,0.5529999999999973],[-0.01300000000000523,0.21300000000002228],[0.08400000000000318,4.208000000000027],[4.028999999999996,-0.35899999999998045],[-0.003999999999990678,-0.22000000000002728],[2.0209999999999866,-0.5760000000000218],[0.09200000000001296,0.18799999999998818],[2.087999999999994,3.464999999999975],[3.4470000000000027,-2.4150000000000205],[-0.10699999999999932,-0.17700000000002092],[1.5269999999999868,-1.5269999999999868],[0.16999999999995907,0.10700000000002774]]}}},{"ty":"sh","ks":{"a":0,"k":{"c":true,"v":[[149.598,314.318],[139.145,277.39099999999996],[175.126,264.039],[185.579,300.966]],"i":[[12.822999999999979,6.511000000000024],[-7.049999999999983,13.884000000000015],[-12.822000000000003,-6.510000000000048],[7.050000000000011,-13.884000000000015]],"o":[[-12.823000000000008,-6.509999999999991],[7.049000000000007,-13.884000000000015],[12.823000000000008,6.509999999999991],[-7.049000000000007,13.884999999999991]]}}},{"ty":"st","o":{"a":0,"k":0},"w":{"a":0,"k":0},"c":{"a":0,"k":[0,0,0,0]},"lc":3,"lj":1,"ml":1},{"ty":"fl","o":{"a":0,"k":100},"r":1,"c":{"a":0,"k":[0.8588235294117647,0.6352941176470588,0.011764705882352941,1]}},{"ty":"tr","o":{"a":0,"k":100},"a":{"a":0,"k":[0,0]},"s":{"a":0,"k":[100,100]},"p":{"a":0,"k":[0,0]},"r":{"a":0,"k":0}}]},{"ty":"gr","nm":"pli3-01 shape group","it":[{"ty":"sh","ks":{"a":0,"k":{"c":true,"v":[[416.35,117.876],[380.122,101.601],[391.34700000000004,95.969],[417.72200000000004,116.66999999999999]],"i":[[0.7839999999999918,0.35199999999998965],[0,0],[-6.470000000000027,2.0700000000000074],[-7.5989999999999895,-25.541999999999987]],"o":[[0,0],[0,0],[0,0],[0.2459999999999809,0.825000000000017]]}}},{"ty":"st","o":{"a":0,"k":0},"w":{"a":0,"k":0},"c":{"a":0,"k":[0,0,0,0]},"lc":3,"lj":1,"ml":1},{"ty":"fl","o":{"a":0,"k":100},"r":1,"c":{"a":0,"k":[0.6274509803921569,0.2235294117647059,0.4627450980392157,1]}},{"ty":"tr","o":{"a":0,"k":100},"a":{"a":0,"k":[0,0]},"s":{"a":0,"k":[100,100]},"p":{"a":0,"k":[0,0]},"r":{"a":0,"k":0}}]},{"ty":"gr","nm":"pli3-01 shape group","it":[{"ty":"sh","ks":{"a":0,"k":{"c":true,"v":[[380.122,101.601],[384.428,142.81799999999998],[383.075,143.85999999999999],[369.11199999999997,112.54099999999998]],"i":[[-6.295999999999992,3.6089999999999947],[0,0],[0.6990000000000123,0.26599999999999113],[-5.7409999999999854,21.908]],"o":[[0,0],[0.07799999999997453,0.742999999999995],[-4.903999999999996,-1.86099999999999],[0.0010000000000331966,0.0010000000000189857]]}}},{"ty":"st","o":{"a":0,"k":0},"w":{"a":0,"k":0},"c":{"a":0,"k":[0,0,0,0]},"lc":3,"lj":1,"ml":1},{"ty":"fl","o":{"a":0,"k":100},"r":1,"c":{"a":0,"k":[0.6274509803921569,0.2235294117647059,0.4627450980392157,1]}},{"ty":"tr","o":{"a":0,"k":100},"a":{"a":0,"k":[0,0]},"s":{"a":0,"k":[100,100]},"p":{"a":0,"k":[0,0]},"r":{"a":0,"k":0}}]},{"ty":"gr","nm":"pli3-01 shape group","it":[{"ty":"sh","ks":{"a":0,"k":{"c":true,"v":[[380.019,101.999],[410.312,112.392],[415.28200000000004,130.255]],"i":[[0,0],[0,0],[5.774999999999977,-6.222999999999999]],"o":[[0,0],[0,0],[-5.775000000000034,6.222000000000008]]}}},{"ty":"st","o":{"a":0,"k":0},"w":{"a":0,"k":0},"c":{"a":0,"k":[0,0,0,0]},"lc":3,"lj":1,"ml":1},{"ty":"fl","o":{"a":0,"k":100},"r":1,"c":{"a":0,"k":[0.984313725490196,0.43529411764705883,0.7333333333333333,1]}},{"ty":"tr","o":{"a":0,"k":100},"a":{"a":0,"k":[0,0]},"s":{"a":0,"k":[100,100]},"p":{"a":0,"k":[0,0]},"r":{"a":0,"k":0}}]},{"ty":"gr","nm":"pli3-01 shape group","it":[{"ty":"sh","ks":{"a":0,"k":{"c":true,"v":[[380.122,101.601],[400.752,141.704],[378.994,137.172]],"i":[[0,0],[6.877999999999986,-4.792000000000002],[0,0]],"o":[[0,0],[-6.877999999999986,4.792000000000002],[0,0]]}}},{"ty":"st","o":{"a":0,"k":0},"w":{"a":0,"k":0},"c":{"a":0,"k":[0,0,0,0]},"lc":3,"lj":1,"ml":1},{"ty":"fl","o":{"a":0,"k":100},"r":1,"c":{"a":0,"k":[0.984313725490196,0.43529411764705883,0.7333333333333333,1]}},{"ty":"tr","o":{"a":0,"k":100},"a":{"a":0,"k":[0,0]},"s":{"a":0,"k":[100,100]},"p":{"a":0,"k":[0,0]},"r":{"a":0,"k":0}}]},{"ty":"gr","nm":"pli3-01 shape group","it":[{"ty":"sh","ks":{"a":0,"k":{"c":true,"v":[[381.765,95.016],[380.548,92.97200000000001],[379.431,90.86300000000001],[378.41999999999996,88.70700000000001],[377.53099999999995,86.50800000000001],[376.25699999999995,81.998],[376.20199999999994,81.71300000000001],[376.15899999999993,81.427],[376.0759999999999,80.85700000000001],[375.9789999999999,79.71900000000001],[375.96199999999993,78.59100000000001],[376.05999999999995,77.48800000000001],[376.09599999999995,77.21600000000001],[376.14899999999994,76.94900000000001],[376.2049999999999,76.68400000000001],[376.2659999999999,76.421],[376.4189999999999,75.909],[376.5089999999999,75.644],[376.6069999999999,75.379],[377.56499999999994,73.452],[378.15399999999994,72.783],[378.42099999999994,72.613],[378.59299999999996,72.572],[378.69699999999995,72.599],[378.85499999999996,72.706],[379.25999999999993,73.269],[379.54499999999996,74.108],[379.64799999999997,75.047],[379.56899999999996,76],[379.46399999999994,76.464],[379.4309999999999,76.578],[379.39199999999994,76.703],[379.3109999999999,76.947],[379.13499999999993,77.379],[378.9769999999999,77.646],[378.9629999999999,77.659],[378.9679999999999,77.65],[378.9839999999999,77.631],[379.24499999999995,77.482],[379.50199999999995,77.437],[379.73999999999995,77.463],[379.94699999999995,77.54599999999999],[379.85999999999996,77.41399999999999],[379.65799999999996,77.05799999999999],[379.45899999999995,76.61699999999999],[379.36799999999994,76.383],[379.32599999999996,76.267],[379.30699999999996,76.211],[379.294,76.169],[377.418,75.169],[376.418,77.045],[376.452,77.144],[376.45799999999997,77.159],[376.496,77.259],[376.53,77.344],[376.599,77.508],[376.745,77.829],[377.079,78.469],[377.517,79.134],[377.82,79.49],[378.258,79.872],[379.001,80.224],[379.537,80.287],[380.09099999999995,80.19500000000001],[380.86499999999995,79.73800000000001],[380.98999999999995,79.61500000000001],[381.097,79.495],[381.26599999999996,79.269],[381.681,78.477],[381.921,77.778],[382.012,77.444],[382.054,77.278],[382.094,77.099],[382.215,76.379],[382.253,74.926],[382.00899999999996,73.483],[381.431,72.077],[380.318,70.788],[379.418,70.33],[378.331,70.237],[377.358,70.553],[376.639,71.071],[375.695,72.254],[374.631,74.69500000000001],[374.537,75.001],[374.44899999999996,75.31200000000001],[374.292,75.96600000000001],[374.234,76.29400000000001],[374.183,76.62200000000001],[374.137,76.95000000000002],[374.111,77.27800000000002],[374.068,78.58100000000002],[374.156,79.86200000000002],[374.333,81.12000000000002],[374.45700000000005,81.73800000000001],[374.5210000000001,82.04600000000002],[374.59600000000006,82.35000000000002],[376.19700000000006,87.03700000000002],[377.23800000000006,89.25800000000002],[378.39400000000006,91.41100000000003],[379.65000000000003,93.50100000000003],[381.014,95.53100000000003],[381.647,95.63400000000003],[381.764,95.02300000000002]],"i":[[0,0],[0.3879999999999768,0.6919999999999931],[0.3550000000000182,0.7109999999999985],[0.32000000000005,0.7250000000000085],[0.2769999999999868,0.7379999999999995],[0.27899999999999636,1.5210000000000008],[0,0],[0,0],[0.023000000000024556,0.18999999999999773],[0.010999999999967258,0.3780000000000001],[0.0020000000000095497,0.375],[-0.060000000000002274,0.35999999999999943],[0,0],[-0.016999999999995907,0.08899999999999864],[0,0],[-0.029999999999972715,0.08400000000000318],[0,0],[-0.028999999999996362,0.08799999999999386],[-0.033999999999991815,0.0870000000000033],[-0.37700000000000955,0.5500000000000114],[-0.19600000000002638,0.15699999999999648],[-0.07699999999999818,0.03300000000000125],[-0.038000000000010914,-0.0010000000000047748],[-0.03999999999996362,-0.018000000000000682],[-0.06400000000002137,-0.057999999999992724],[-0.1209999999999809,-0.2469999999999999],[-0.06400000000002137,-0.30299999999999727],[-0.002999999999985903,-0.31799999999999784],[0.05700000000001637,-0.3130000000000024],[0.04099999999999682,-0.15200000000000102],[0,0],[0,0],[0.027000000000043656,-0.0799999999999983],[0.060000000000002274,-0.12600000000000477],[0.033999999999991815,-0.033999999999991815],[0.0020000000000095497,-0.0030000000000001137],[-0.0020000000000095497,0.001999999999995339],[-0.006000000000028649,0.005000000000009663],[-0.15399999999999636,0.05100000000000193],[-0.08899999999999864,0.0030000000000001137],[-0.06799999999998363,-0.018999999999991246],[-0.021000000000015007,-0.01099999999999568],[0.057999999999992724,0.09300000000000352],[0.06799999999998363,0.13599999999999568],[0.06299999999998818,0.15399999999999636],[0.028999999999996362,0.07799999999998875],[0,0],[0,0],[-0.0010000000000331966,0.0010000000000047748],[0.7939999999999827,-0.24200000000000443],[-0.24200000000001864,-0.7940000000000111],[-0.012999999999976808,-0.03300000000000125],[0,0],[0,0],[0,0],[0,0],[-0.05099999999998772,-0.10699999999999932],[-0.12400000000002365,-0.2150000000000034],[-0.17599999999998772,-0.23000000000000398],[-0.11700000000001864,-0.12199999999999989],[-0.18299999999999272,-0.13100000000000023],[-0.32600000000002183,-0.08599999999999852],[-0.19200000000000728,0.0049999999999954525],[-0.17399999999997817,0.05499999999999261],[-0.17899999999997362,0.1629999999999967],[-0.03500000000002501,0.03900000000000148],[0,0],[-0.04599999999999227,0.07099999999999795],[-0.10099999999999909,0.24399999999999977],[-0.06499999999999773,0.22400000000000375],[-0.026999999999986812,0.10999999999999943],[0,0],[0,0],[-0.027999999999963165,0.24099999999999966],[0.03300000000001546,0.48400000000000887],[0.132000000000005,0.4759999999999991],[0.2629999999999768,0.4580000000000126],[0.5079999999999814,0.37999999999999545],[0.3439999999999941,0.1039999999999992],[0.36099999999999,-0.04899999999999238],[0.28000000000002956,-0.15099999999999625],[0.20299999999997453,-0.1869999999999976],[0.24600000000003774,-0.4030000000000058],[0.26300000000003365,-0.8160000000000025],[0.028999999999996362,-0.10200000000000387],[0.025000000000034106,-0.11200000000000898],[0,0],[0.019000000000005457,-0.10900000000000887],[0,0],[0.009000000000014552,-0.10900000000000887],[0,0],[0.004000000000019099,-0.43200000000000216],[-0.05500000000000682,-0.4210000000000065],[-0.06600000000003092,-0.4170000000000016],[-0.04099999999999682,-0.20599999999998886],[0,0],[0,0],[-0.6429999999999723,-1.5079999999999956],[-0.36700000000001864,-0.7289999999999992],[-0.4019999999999868,-0.7070000000000078],[-0.4339999999999691,-0.6869999999999976],[-0.4830000000000041,-0.6710000000000065],[-0.20299999999997453,0.1460000000000008],[0.12899999999996226,0.20100000000000762]],"o":[[-0.42200000000002547,-0.6580000000000013],[-0.3879999999999768,-0.6949999999999932],[-0.3550000000000182,-0.7120000000000033],[-0.3170000000000073,-0.7259999999999991],[-0.5400000000000205,-1.4809999999999945],[0,0],[0,0],[-0.026999999999986812,-0.18999999999999773],[-0.038000000000010914,-0.37999999999999545],[-0.029999999999972715,-0.3790000000000049],[0.02600000000001046,-0.37000000000000455],[0,0],[0.011000000000024102,-0.09099999999999397],[0,0],[0.021000000000015007,-0.08799999999999386],[0,0],[0.02199999999999136,-0.08299999999999841],[0.03100000000000591,-0.09000000000000341],[0.26600000000001955,-0.7009999999999934],[0.18599999999997863,-0.2740000000000009],[0.09699999999997999,-0.07899999999999352],[0.07699999999999818,-0.03300000000000125],[0.03899999999998727,0],[0.03899999999998727,0.018000000000000682],[0.12999999999999545,0.11199999999999477],[0.12400000000002365,0.2469999999999999],[0.06599999999997408,0.30299999999999727],[0.004000000000019099,0.3190000000000026],[-0.026999999999986812,0.15699999999999648],[0,0],[0,0],[-0.02600000000001046,0.08400000000000318],[-0.05500000000000682,0.15900000000000603],[-0.05900000000002592,0.12399999999999523],[-0.009000000000014552,0.01300000000000523],[0.0009999999999763531,-0.0040000000000048885],[0.0020000000000095497,-0.001999999999995339],[0.029999999999972715,-0.028999999999996362],[0.07699999999999818,-0.027000000000001023],[0.09100000000000819,-0.0010000000000047748],[0.132000000000005,0.034000000000006025],[0.03699999999997772,0.02400000000000091],[-0.06200000000001182,-0.09300000000000352],[-0.06900000000001683,-0.13700000000000045],[-0.03100000000000591,-0.07699999999999818],[0,0],[0,0],[-0.0049999999999954525,-0.016000000000005343],[-0.24200000000001864,-0.7939999999999969],[-0.7939999999999827,0.24200000000000443],[0.009999999999990905,0.03300000000000125],[0,0],[0,0],[0,0],[0,0],[0.047000000000025466,0.10800000000000409],[0.10099999999999909,0.21299999999999386],[0.125,0.21599999999999397],[0.08800000000002228,0.11499999999999488],[0.117999999999995,0.12300000000000466],[0.18400000000002592,0.1280000000000001],[0.16500000000002046,0.04099999999999682],[0.18999999999999773,-0.001999999999995339],[0.34600000000000364,-0.11299999999999955],[0.04199999999997317,-0.04000000000000625],[0,0],[0.06099999999997863,-0.07500000000000284],[0.19900000000001228,-0.29399999999999693],[0.09800000000001319,-0.242999999999995],[0.031999999999982265,-0.11199999999999477],[0,0],[0,0],[0.05099999999998772,-0.23799999999999955],[0.05900000000002592,-0.4819999999999993],[-0.03300000000001546,-0.48399999999999466],[-0.132000000000005,-0.4759999999999991],[-0.26499999999998636,-0.4549999999999983],[-0.2529999999999859,-0.1880000000000024],[-0.34199999999998454,-0.10599999999999454],[-0.3620000000000232,0.04600000000000648],[-0.2810000000000059,0.15099999999999625],[-0.4060000000000059,0.3760000000000048],[-0.4870000000000232,0.8080000000000069],[-0.03300000000001546,0.10200000000000387],[-0.028999999999996362,0.1039999999999992],[0,0],[-0.029999999999972715,0.10899999999999466],[0,0],[-0.014999999999986358,0.10899999999999466],[0,0],[-0.04599999999999227,0.4380000000000024],[0.023000000000024556,0.42900000000000205],[0.03699999999997772,0.42499999999999716],[0.03699999999997772,0.20699999999999363],[0,0],[0,0],[0.3919999999999959,1.625],[0.32900000000000773,0.7510000000000048],[0.3690000000000282,0.7279999999999944],[0.4019999999999868,0.7079999999999984],[0.4370000000000118,0.6880000000000024],[0.146000000000015,0.20300000000000296],[0.19600000000002638,-0.14100000000000534],[0,0]]}}},{"ty":"st","o":{"a":0,"k":0},"w":{"a":0,"k":0},"c":{"a":0,"k":[0,0,0,0]},"lc":3,"lj":1,"ml":1},{"ty":"fl","o":{"a":0,"k":100},"r":1,"c":{"a":0,"k":[1,0.7686274509803922,0.26666666666666666,1]}},{"ty":"tr","o":{"a":0,"k":100},"a":{"a":0,"k":[0,0]},"s":{"a":0,"k":[100,100]},"p":{"a":0,"k":[0,0]},"r":{"a":0,"k":0}}]},{"ty":"gr","nm":"pli3-01 shape group","it":[{"ty":"sh","ks":{"a":0,"k":{"c":true,"v":[[372.2,101.512],[370.544,99.712],[368.805,98.003],[366.981,96.376],[365.064,94.845],[360.88,92.194],[360.602,92.05],[360.31699999999995,91.916],[359.74499999999995,91.651],[358.56299999999993,91.185],[357.3379999999999,90.8],[356.0599999999999,90.538],[355.7349999999999,90.487],[355.4049999999999,90.455],[355.0739999999999,90.428],[354.7409999999999,90.408],[354.06899999999985,90.408],[353.74599999999987,90.421],[353.4259999999999,90.441],[350.80399999999986,90.906],[349.43399999999986,91.548],[348.76199999999983,92.126],[348.22799999999984,92.998],[348.0649999999998,94.07600000000001],[348.29999999999984,95.058],[349.29399999999987,96.441],[350.5259999999999,97.331],[351.8719999999999,97.905],[353.2929999999999,98.20700000000001],[354.0209999999999,98.257],[354.2039999999999,98.259],[354.3749999999999,98.257],[354.7209999999999,98.24600000000001],[355.4569999999999,98.17500000000001],[356.3239999999999,97.95700000000001],[356.5829999999999,97.84500000000001],[356.7249999999999,97.76900000000002],[356.8739999999999,97.67600000000002],[357.4989999999999,97.03000000000002],[357.7169999999999,96.51300000000002],[357.78099999999995,95.97700000000002],[357.61199999999997,95.17200000000001],[357.34299999999996,94.65700000000001],[357.06699999999995,94.27900000000001],[356.52199999999993,93.69800000000001],[355.9769999999999,93.224],[355.6989999999999,93.00800000000001],[355.5559999999999,92.90200000000002],[355.48099999999994,92.84900000000002],[355.3929999999999,92.78800000000001],[355.3829999999999,92.781],[353.2919999999999,93.16600000000001],[353.6769999999999,95.257],[353.7679999999999,95.31500000000001],[353.8059999999999,95.33800000000001],[353.85599999999994,95.37],[353.9599999999999,95.438],[354.16599999999994,95.581],[354.5489999999999,95.87700000000001],[354.8479999999999,96.15700000000001],[354.9559999999999,96.272],[354.9239999999999,96.051],[354.9549999999999,95.81400000000001],[355.0589999999999,95.575],[355.26499999999993,95.35600000000001],[355.2869999999999,95.34400000000001],[355.2969999999999,95.34100000000001],[355.2809999999999,95.352],[354.98399999999987,95.443],[354.52299999999985,95.51299999999999],[354.2669999999999,95.535],[354.1359999999999,95.544],[354.0179999999999,95.54899999999999],[353.5419999999999,95.54299999999999],[352.5969999999999,95.39699999999999],[351.7079999999999,95.077],[350.9589999999999,94.604],[350.5059999999999,94.079],[350.4389999999999,93.89999999999999],[350.4369999999999,93.79299999999999],[350.5169999999999,93.63499999999999],[350.7449999999999,93.41499999999999],[351.5329999999999,92.99799999999999],[353.6299999999999,92.51599999999999],[353.9109999999999,92.48299999999999],[354.1889999999999,92.457],[354.7219999999999,92.428],[354.9919999999999,92.42999999999999],[355.2629999999999,92.43799999999999],[355.5349999999999,92.44899999999998],[355.80799999999994,92.47799999999998],[356.90399999999994,92.63999999999999],[357.99699999999996,92.91999999999999],[359.08099999999996,93.27999999999999],[359.616,93.49299999999998],[359.88399999999996,93.60099999999998],[360.14799999999997,93.72099999999999],[364.236,96.01299999999999],[366.167,97.39099999999999],[368.02799999999996,98.877],[369.81899999999996,100.455],[371.52299999999997,102.116],[371.53,102.123],[372.171,102.13600000000001]],"i":[[0.15500000000002956,0.18099999999999739],[0.5670000000000073,0.5849999999999937],[0.5939999999999941,0.5550000000000068],[0.6220000000000141,0.5289999999999964],[0.6539999999999964,0.49500000000000455],[1.4890000000000327,0.7599999999999909],[0,0],[0,0],[0.19299999999998363,0.08400000000000318],[0.40500000000002956,0.13599999999999568],[0.41200000000003456,0.12300000000000466],[0.4370000000000118,0.05700000000000216],[0,0],[0.1099999999999568,0.01099999999999568],[0,0],[0.11299999999999955,-0.0030000000000001137],[0,0],[0.10800000000000409,-0.0040000000000048885],[0.1069999999999709,-0.007999999999995566],[0.9000000000000341,-0.28600000000000136],[0.46100000000001273,-0.30700000000000216],[0.21300000000002228,-0.23799999999999955],[0.1290000000000191,-0.340999999999994],[-0.022999999999967713,-0.3569999999999993],[-0.12400000000002365,-0.2890000000000015],[-0.382000000000005,-0.36299999999999955],[-0.43200000000001637,-0.23900000000000432],[-0.4630000000000223,-0.14499999999999602],[-0.4819999999999709,-0.05500000000000682],[-0.242999999999995,-0.0049999999999954525],[0,0],[0,0],[-0.11700000000001864,0.0049999999999954525],[-0.25900000000001455,0.03900000000000148],[-0.33199999999999363,0.125],[-0.08699999999998909,0.04099999999999682],[0,0],[-0.04899999999997817,0.031999999999996476],[-0.19099999999997408,0.3100000000000023],[-0.04599999999999227,0.1839999999999975],[0.0009999999999763531,0.1700000000000017],[0.08199999999999363,0.20900000000000318],[0.09199999999998454,0.14300000000000068],[0.09199999999998454,0.11199999999999477],[0.18100000000004002,0.17199999999999704],[0.18400000000002592,0.14800000000001035],[0.09399999999999409,0.06999999999999318],[0,0],[0,0],[0,0],[0,0],[0.47100000000000364,-0.6840000000000117],[-0.6839999999999691,-0.4709999999999894],[-0.03000000000002956,-0.018000000000000682],[-0.014000000000010004,-0.009000000000000341],[0,0],[0,0],[-0.06700000000000728,-0.049000000000006594],[-0.1169999999999618,-0.09900000000000375],[-0.07599999999996498,-0.08299999999999841],[0.014999999999986358,0.04200000000000159],[0.0020000000000095497,0.1360000000000099],[-0.02199999999999136,0.08799999999999386],[-0.04499999999995907,0.06799999999999784],[-0.03500000000002501,0.02199999999999136],[-0.0020000000000095497,0.001999999999995339],[-0.004000000000019099,0],[0.014000000000010004,-0.006000000000000227],[0.13500000000004775,-0.027999999999991587],[0.16700000000003,-0.016999999999995907],[0.08799999999996544,-0.005000000000009663],[0,0],[0,0],[0.15899999999999181,0.01099999999999568],[0.3089999999999691,0.07900000000000773],[0.27899999999999636,0.1349999999999909],[0.21100000000001273,0.17799999999999727],[0.07899999999995089,0.1530000000000058],[0.007999999999981355,0.04200000000000159],[-0.009000000000014552,0.0379999999999967],[-0.05099999999998772,0.06799999999999784],[-0.10000000000002274,0.0759999999999934],[-0.3090000000000259,0.117999999999995],[-0.7439999999999714,0.09399999999999409],[-0.09399999999999409,0.009000000000000341],[-0.08600000000001273,0.001999999999995339],[0,0],[-0.08999999999997499,-0.000999999999990564],[0,0],[-0.09100000000000819,-0.009999999999990905],[0,0],[-0.36700000000001864,-0.06100000000000705],[-0.3620000000000232,-0.117999999999995],[-0.36099999999999,-0.12600000000000477],[-0.17799999999999727,-0.06999999999999318],[0,0],[0,0],[-1.3140000000000214,-0.8709999999999951],[-0.632000000000005,-0.4789999999999992],[-0.6100000000000136,-0.5100000000000051],[-0.5860000000000127,-0.5400000000000063],[-0.54200000000003,-0.5640000000000072],[0,0],[-0.18000000000000682,0.17300000000000182]],"o":[[-0.5400000000000205,-0.6260000000000048],[-0.5670000000000073,-0.5819999999999936],[-0.5939999999999941,-0.5559999999999974],[-0.6229999999999905,-0.527000000000001],[-1.315999999999974,-0.9779999999999944],[0,0],[0,0],[-0.19099999999997408,-0.08799999999999386],[-0.38999999999998636,-0.16200000000000614],[-0.39699999999999136,-0.15200000000000102],[-0.42200000000002547,-0.0969999999999942],[0,0],[-0.10800000000000409,-0.016999999999995907],[0,0],[-0.11099999999999,-0.007000000000005002],[0,0],[-0.1150000000000091,-0.001999999999995339],[-0.10599999999999454,0.0049999999999954525],[-0.853999999999985,0.06499999999999773],[-0.4490000000000123,0.14499999999999602],[-0.228999999999985,0.15399999999999636],[-0.21199999999998909,0.23699999999999477],[-0.132000000000005,0.33899999999999864],[0.021000000000015007,0.35899999999999466],[0.25099999999997635,0.5829999999999984],[0.38400000000001455,0.36299999999999955],[0.4329999999999927,0.23999999999999488],[0.4630000000000223,0.14499999999999602],[0.24099999999998545,0.028999999999996362],[0,0],[0,0],[0.11299999999999955,-0.0010000000000047748],[0.23399999999998045,-0.01099999999999568],[0.2610000000000241,-0.04099999999999682],[0.07999999999998408,-0.028999999999996362],[0,0],[0.04599999999999227,-0.025000000000005684],[0.19999999999998863,-0.13599999999999568],[0.09399999999999409,-0.1560000000000059],[0.05000000000001137,-0.18500000000000227],[-0.007999999999981355,-0.3370000000000033],[-0.08400000000000318,-0.20900000000000318],[-0.09199999999998454,-0.14300000000000068],[-0.18299999999999272,-0.22499999999999432],[-0.18099999999998317,-0.17100000000000648],[-0.09199999999998454,-0.07399999999999807],[0,0],[0,0],[0,0],[0,0],[-0.6840000000000259,-0.47100000000000364],[-0.47100000000000364,0.6840000000000117],[0.028999999999996362,0.01999999999999602],[0.0009999999999763531,0],[0,0],[0,0],[0.06900000000001683,0.04600000000000648],[0.1349999999999909,0.0969999999999942],[0.11599999999998545,0.09799999999999898],[0.07699999999999818,0.07800000000000296],[-0.005999999999971806,-0.022999999999996135],[-0.0020000000000095497,-0.06999999999999318],[0.02400000000000091,-0.08599999999999852],[0.08600000000001273,-0.13800000000000523],[0.005999999999971806,-0.0049999999999954525],[0.002999999999985903,-0.001999999999995339],[-0.004000000000019099,0.0010000000000047748],[-0.04199999999997317,0.025000000000005684],[-0.13700000000000045,0.028999999999996362],[-0.08400000000000318,0.007999999999995566],[0,0],[0,0],[-0.15800000000001546,0.0049999999999954525],[-0.31799999999998363,-0.018000000000000682],[-0.3090000000000259,-0.07800000000000296],[-0.27899999999999636,-0.13400000000000034],[-0.21199999999998909,-0.17600000000000193],[-0.04099999999999682,-0.0759999999999934],[-0.007999999999981355,-0.043000000000006366],[0.007999999999981355,-0.03700000000000614],[0.05000000000001137,-0.06699999999999307],[0.19900000000001228,-0.15399999999999636],[0.6229999999999905,-0.23900000000000432],[0.09300000000001774,-0.01300000000000523],[0.09199999999998454,-0.007999999999995566],[0,0],[0.08899999999999864,-0.009000000000000341],[0,0],[0.08999999999997499,0.0040000000000048885],[0,0],[0.3650000000000091,0.02599999999999625],[0.3639999999999759,0.08899999999999864],[0.3650000000000091,0.09999999999999432],[0.17899999999997362,0.06699999999999307],[0,0],[0,0],[1.4139999999999873,0.6269999999999953],[0.6539999999999964,0.44199999999999307],[0.6309999999999718,0.480000000000004],[0.6089999999999804,0.5109999999999957],[0.5819999999999936,0.5390000000000015],[0,0],[0.17300000000000182,0.18099999999999739],[0.17400000000003502,-0.16900000000001114]]}}},{"ty":"st","o":{"a":0,"k":0},"w":{"a":0,"k":0},"c":{"a":0,"k":[0,0,0,0]},"lc":3,"lj":1,"ml":1},{"ty":"fl","o":{"a":0,"k":100},"r":1,"c":{"a":0,"k":[1,0.7686274509803922,0.26666666666666666,1]}},{"ty":"tr","o":{"a":0,"k":100},"a":{"a":0,"k":[0,0]},"s":{"a":0,"k":[100,100]},"p":{"a":0,"k":[0,0]},"r":{"a":0,"k":0}}]},{"ty":"gr","nm":"pli3-01 shape group","it":[{"ty":"sh","ks":{"a":0,"k":{"c":true,"v":[[369.044,111.776],[374.305,97.306],[391.347,95.97],[380.12199999999996,101.602],[369.11199999999997,112.543]],"i":[[0.018000000000029104,0.25900000000000034],[-5.786000000000001,4.640000000000001],[-6.0849999999999795,-2.2849999999999966],[4.049000000000035,-2.76700000000001],[3.2520000000000095,-4.7549999999999955]],"o":[[-0.055999999999983174,-0.840999999999994],[4.2970000000000255,-3.4470000000000027],[-3.1709999999999923,1.1020000000000039],[-3.8589999999999804,2.6370000000000005],[-0.025999999999953616,-0.2540000000000049]]}}},{"ty":"st","o":{"a":0,"k":0},"w":{"a":0,"k":0},"c":{"a":0,"k":[0,0,0,0]},"lc":3,"lj":1,"ml":1},{"o":{"a":0,"k":100},"r":1},{"ty":"tr","o":{"a":0,"k":100},"a":{"a":0,"k":[0,0]},"s":{"a":0,"k":[100,100]},"p":{"a":0,"k":[0,0]},"r":{"a":0,"k":0}}]},{"ty":"gr","nm":"pli3-01 shape group","it":[{"ty":"sh","ks":{"a":0,"k":{"c":true,"v":[[374.67,124.219],[400.755,130.85399999999998],[402.779,104.84699999999998],[374.305,97.30499999999998],[369.044,111.77499999999998]],"i":[[-1.3729999999999905,-1.5049999999999955],[-8.007000000000005,5.896000000000015],[5.0090000000000146,7.674000000000007],[7.5020000000000095,-6.016999999999996],[-0.055999999999983174,-0.840999999999994]],"o":[[5.7379999999999995,6.288999999999987],[7.6129999999999995,-5.605000000000004],[-6.269999999999982,-9.607],[-5.786000000000001,4.640000000000001],[0.438000000000045,6.632000000000019]]}}},{"ty":"st","o":{"a":0,"k":0},"w":{"a":0,"k":0},"c":{"a":0,"k":[0,0,0,0]},"lc":3,"lj":1,"ml":1},{"ty":"fl","o":{"a":0,"k":100},"r":1,"c":{"a":0,"k":[0.10980392156862745,0.11372549019607843,0.11764705882352941,1]}},{"ty":"tr","o":{"a":0,"k":100},"a":{"a":0,"k":[0,0]},"s":{"a":0,"k":[100,100]},"p":{"a":0,"k":[0,0]},"r":{"a":0,"k":0}}]},{"ty":"gr","nm":"pli3-01 shape group","it":[{"ty":"sh","ks":{"a":0,"k":{"c":true,"v":[[382.838,128.007],[382.65700000000004,128.068],[382.49800000000005,128.127],[382.19000000000005,128.25400000000002],[381.59600000000006,128.54500000000002],[380.47700000000003,129.29000000000002],[378.744,131.532],[378.607,131.87800000000001],[378.49300000000005,132.234],[378.34100000000007,132.964],[378.2750000000001,133.703],[378.30000000000007,134.43200000000002],[378.9820000000001,137.138],[378.9960000000001,137.172],[380.9640000000001,137.996],[381.7880000000001,136.02800000000002],[381.67900000000014,135.81300000000002],[380.91000000000014,134.05200000000002],[380.81900000000013,133.60800000000003],[380.7860000000001,133.16900000000004],[380.8010000000001,132.73300000000003],[380.8330000000001,132.51800000000003],[380.8790000000001,132.30400000000003],[381.77200000000005,130.68400000000003],[382.52000000000004,129.99400000000003],[382.94500000000005,129.69400000000002],[383.1650000000001,129.55900000000003],[383.2750000000001,129.497],[383.3670000000001,129.447],[383.5010000000001,129.358],[383.7130000000001,128.306]],"i":[[0.31699999999995043,-0.10699999999999932],[0,0],[0.05099999999998772,-0.020000000000010232],[0.10099999999999909,-0.045000000000015916],[0.19499999999999318,-0.10499999999998977],[0.3550000000000182,-0.28700000000000614],[0.39400000000000546,-0.9129999999999825],[0.03899999999998727,-0.117999999999995],[0,0],[0.029999999999972715,-0.2459999999999809],[0.01599999999996271,-0.24799999999999045],[-0.027999999999963165,-0.2370000000000232],[-0.3420000000000414,-0.8339999999999748],[0,0],[-0.771000000000015,0.3159999999999741],[0.3159999999999741,0.7709999999999866],[0.03999999999996362,0.06499999999999773],[0.1490000000000009,0.5919999999999845],[0.03100000000000591,0.1490000000000009],[-0.003999999999962256,0.14400000000000546],[-0.007999999999981355,0.146000000000015],[0,0],[-0.014000000000010004,0.07200000000000273],[-0.44599999999996953,0.4939999999999998],[-0.2740000000000009,0.2109999999999843],[-0.146000000000015,0.09300000000001774],[-0.07300000000003593,0.042999999999977945],[0,0],[-0.014000000000010004,0.009000000000014552],[0,0],[0.23200000000002774,0.34899999999998954]],"o":[[0,0],[-0.05299999999999727,0.020000000000010232],[-0.10500000000001819,0.03999999999999204],[-0.20299999999997453,0.08799999999999386],[-0.3879999999999768,0.21199999999998909],[-0.7090000000000032,0.5699999999999932],[-0.04599999999999227,0.1150000000000091],[0,0],[-0.060000000000002274,0.2400000000000091],[-0.04399999999998272,0.2470000000000141],[0.004000000000019099,0.24199999999999022],[0.08100000000001728,0.9650000000000034],[0,0],[0.3159999999999741,0.7709999999999866],[0.771000000000015,-0.3160000000000025],[-0.029999999999972715,-0.0730000000000075],[-0.35199999999997544,-0.5749999999999886],[-0.04599999999999227,-0.1490000000000009],[-0.011000000000024102,-0.14500000000001023],[-0.009000000000014552,-0.14699999999999136],[0,0],[0.009999999999990905,-0.0730000000000075],[0.13999999999998636,-0.568000000000012],[0.22100000000000364,-0.2470000000000141],[0.1379999999999768,-0.10499999999998977],[0.07299999999997908,-0.046999999999997044],[0,0],[0.03300000000001546,-0.018000000000000682],[0,0],[0.34899999999998954,-0.23199999999999932],[-0.19600000000008322,-0.29300000000000637]]}}},{"ty":"st","o":{"a":0,"k":0},"w":{"a":0,"k":0},"c":{"a":0,"k":[0,0,0,0]},"lc":3,"lj":1,"ml":1},{"ty":"fl","o":{"a":0,"k":100},"r":1,"c":{"a":0,"k":[0.10980392156862745,0.11372549019607843,0.11764705882352941,1]}},{"ty":"tr","o":{"a":0,"k":100},"a":{"a":0,"k":[0,0]},"s":{"a":0,"k":[100,100]},"p":{"a":0,"k":[0,0]},"r":{"a":0,"k":0}}]},{"ty":"gr","nm":"pli3-01 shape group","it":[{"ty":"sh","ks":{"a":0,"k":{"c":true,"v":[[373.605,120.173],[373.432,120.093],[373.276,120.027],[372.96500000000003,119.907],[372.333,119.71],[371.00800000000004,119.482],[368.208,119.92],[367.87,120.077],[367.54200000000003,120.257],[366.93,120.683],[366.374,121.174],[365.891,121.721],[364.526,124.155],[364.51300000000003,124.18900000000001],[365.37600000000003,126.14],[367.32700000000006,125.277],[367.3960000000001,125.046],[368.04800000000006,123.238],[368.28700000000003,122.853],[368.56500000000005,122.512],[368.87600000000003,122.205],[369.047,122.07],[369.228,121.946],[370.99,121.383],[372.008,121.396],[372.52299999999997,121.471],[372.77599999999995,121.525],[372.89799999999997,121.555],[372.99999999999994,121.58200000000001],[373.15899999999993,121.60900000000001],[374.0349999999999,120.99000000000001]],"i":[[0.3039999999999736,0.14000000000000057],[0,0],[0.05099999999998772,0.01999999999999602],[0.103999999999985,0.038000000000010914],[0.21399999999999864,0.058000000000006935],[0.45599999999996044,0.036000000000001364],[0.9139999999999873,-0.3919999999999959],[0.11000000000001364,-0.0589999999999975],[0,0],[0.19100000000003092,-0.15800000000000125],[0.18199999999995953,-0.16899999999999693],[0.1430000000000291,-0.19199999999999307],[0.32499999999998863,-0.8400000000000034],[0,0],[-0.7769999999999868,-0.3009999999999877],[-0.30100000000004457,0.777000000000001],[-0.016999999999995907,0.07499999999998863],[-0.29899999999997817,0.5330000000000013],[-0.07999999999998408,0.13000000000000966],[-0.10300000000000864,0.10099999999999909],[-0.1069999999999709,0.10099999999999909],[0,0],[-0.060000000000002274,0.042999999999992156],[-0.6630000000000109,0.05299999999999727],[-0.34499999999997044,-0.0350000000000108],[-0.16999999999995907,-0.03300000000000125],[-0.08299999999996999,-0.01999999999999602],[0,0],[-0.016999999999995907,-0.0030000000000001137],[0,0],[-0.07099999999996953,0.4129999999999967]],"o":[[0,0],[-0.05200000000002092,-0.02200000000000557],[-0.103999999999985,-0.043000000000006366],[-0.20800000000002683,-0.0759999999999934],[-0.42799999999999727,-0.11299999999999955],[-0.9069999999999823,-0.07299999999999329],[-0.11200000000002319,0.05200000000000671],[0,0],[-0.20900000000000318,0.13299999999999557],[-0.20100000000002183,0.1490000000000009],[-0.16399999999998727,0.17900000000000205],[-0.603999999999985,0.7560000000000002],[0,0],[-0.3009999999999877,0.777000000000001],[0.7769999999999868,0.29999999999999716],[0.02800000000002001,-0.07399999999999807],[0.13999999999998636,-0.659000000000006],[0.06900000000001683,-0.14000000000000057],[0.09199999999998454,-0.11299999999999955],[0.09500000000002728,-0.11299999999999955],[0,0],[0.05700000000001637,-0.04600000000000648],[0.49200000000001864,-0.31699999999999307],[0.3310000000000173,-0.027000000000001023],[0.17200000000002547,0.019000000000005457],[0.08499999999997954,0.016000000000005343],[0,0],[0.036000000000001364,0.009000000000000341],[0,0],[0.4130000000000109,0.07099999999999795],[0.059000000000082764,-0.3450000000000131]]}}},{"ty":"st","o":{"a":0,"k":0},"w":{"a":0,"k":0},"c":{"a":0,"k":[0,0,0,0]},"lc":3,"lj":1,"ml":1},{"ty":"fl","o":{"a":0,"k":100},"r":1,"c":{"a":0,"k":[0.10980392156862745,0.11372549019607843,0.11764705882352941,1]}},{"ty":"tr","o":{"a":0,"k":100},"a":{"a":0,"k":[0,0]},"s":{"a":0,"k":[100,100]},"p":{"a":0,"k":[0,0]},"r":{"a":0,"k":0}}]},{"ty":"gr","nm":"pli3-01 shape group","it":[{"ty":"sh","ks":{"a":0,"k":{"c":true,"v":[[405.318,114.956],[405.411,114.906],[405.523,114.848],[405.75600000000003,114.737],[406.23900000000003,114.544],[407.22600000000006,114.294],[409.0710000000001,114.42999999999999],[409.27600000000007,114.508],[409.47400000000005,114.59899999999999],[409.84800000000007,114.82399999999998],[410.1980000000001,115.09099999999998],[410.5200000000001,115.40899999999998],[411.5760000000001,117.01399999999998],[413.5870000000001,117.72599999999998],[414.2990000000001,115.71499999999999],[414.1830000000001,115.51299999999999],[414.1570000000001,115.47599999999998],[412.2610000000001,113.42799999999998],[411.66300000000007,113.00999999999998],[411.0080000000001,112.66199999999998],[410.3130000000001,112.39099999999998],[409.9520000000001,112.29299999999998],[409.5870000000001,112.21999999999998],[406.7620000000001,112.44899999999998],[405.5270000000001,112.97999999999999],[404.9590000000001,113.31899999999999],[404.6850000000001,113.50799999999998],[404.5490000000001,113.60899999999998],[404.3990000000001,113.72699999999998],[404.2740000000001,114.79199999999997],[405.1690000000001,115.01899999999998]],"i":[[0,0],[-0.03300000000001546,0.018000000000000682],[0,0],[-0.07900000000000773,0.0350000000000108],[-0.16199999999997772,0.057999999999992724],[-0.3280000000000314,0.04999999999999716],[-0.5530000000000541,-0.19299999999999784],[-0.06700000000000728,-0.03100000000000591],[0,0],[-0.1190000000000282,-0.08699999999998909],[-0.11600000000004229,-0.08799999999999386],[-0.10000000000002274,-0.12000000000000455],[-0.2899999999999636,-0.6080000000000041],[-0.7520000000000095,0.35899999999999466],[0.3590000000000373,0.7519999999999953],[0.043000000000006366,0.06300000000000239],[0,0],[0.76400000000001,0.5940000000000083],[0.20100000000002183,0.13500000000000512],[0.23099999999999454,0.09799999999999898],[0.23500000000001364,0.08100000000000307],[0,0],[0.1209999999999809,0.022999999999996135],[0.8650000000000091,-0.2819999999999965],[0.38999999999998636,-0.20900000000000318],[0.18399999999996908,-0.12199999999999989],[0.08999999999997499,-0.06599999999998829],[0.045000000000015916,-0.034000000000006025],[0,0],[-0.2599999999999909,-0.32800000000000296],[-0.3079999999999927,0.1319999999999908]],"o":[[0.016000000000019554,-0.007000000000005002],[0,0],[0.07600000000002183,-0.0379999999999967],[0.15800000000001546,-0.07200000000000273],[0.3269999999999982,-0.11400000000000432],[0.6569999999999823,-0.10299999999999443],[0.06799999999998363,0.027000000000001023],[0,0],[0.12700000000000955,0.07299999999999329],[0.12299999999999045,0.07500000000000284],[0.10800000000000409,0.10699999999999932],[0.41500000000002046,0.4479999999999933],[0.35899999999998045,0.7519999999999953],[0.7520000000000095,-0.35899999999999466],[-0.033999999999991815,-0.07099999999999795],[0,0],[-0.5129999999999768,-0.7409999999999997],[-0.18400000000002592,-0.1530000000000058],[-0.21600000000000819,-0.12199999999999989],[-0.22199999999998,-0.10899999999999466],[0,0],[-0.12000000000000455,-0.031999999999996476],[-0.9800000000000182,-0.1670000000000016],[-0.4350000000000023,0.14100000000000534],[-0.19400000000001683,0.10599999999999454],[-0.09199999999998454,0.06100000000000705],[-0.045000000000015916,0.031999999999996476],[0,0],[-0.32900000000000773,0.2600000000000051],[0.21699999999998454,0.2750000000000057],[0,0]]}}},{"ty":"st","o":{"a":0,"k":0},"w":{"a":0,"k":0},"c":{"a":0,"k":[0,0,0,0]},"lc":3,"lj":1,"ml":1},{"ty":"fl","o":{"a":0,"k":100},"r":1,"c":{"a":0,"k":[0.10980392156862745,0.11372549019607843,0.11764705882352941,1]}},{"ty":"tr","o":{"a":0,"k":100},"a":{"a":0,"k":[0,0]},"s":{"a":0,"k":[100,100]},"p":{"a":0,"k":[0,0]},"r":{"a":0,"k":0}}]},{"ty":"gr","nm":"pli3-01 shape group","it":[{"ty":"sh","ks":{"a":0,"k":{"c":true,"v":[[402.531,104.688],[402.577,104.593],[402.634,104.48],[402.75800000000004,104.253],[403.03700000000003,103.813],[403.69000000000005,103.032],[405.26500000000004,102.062],[405.47700000000003,102.005],[405.69100000000003,101.963],[406.12600000000003,101.92699999999999],[406.56600000000003,101.93799999999999],[407.01300000000003,102.00699999999999],[408.809,102.69],[410.85600000000005,102.09],[410.25600000000003,100.043],[410.04400000000004,99.947],[410,99.934],[407.264,99.38499999999999],[406.535,99.39599999999999],[405.8,99.49799999999999],[405.07800000000003,99.68499999999999],[404.728,99.817],[404.389,99.97099999999999],[402.23400000000004,101.81099999999999],[401.54400000000004,102.96499999999999],[401.28200000000004,103.573],[401.17,103.88699999999999],[401.119,104.04899999999999],[401.067,104.232],[401.589,105.169],[402.447,104.829]],"i":[[0,0],[-0.016000000000019554,0.033999999999991815],[0,0],[-0.043000000000006366,0.07500000000000284],[-0.09800000000001319,0.14300000000000068],[-0.23600000000004684,0.2330000000000041],[-0.5609999999999786,0.1670000000000016],[-0.07200000000000273,0.013999999999995794],[0,0],[-0.14800000000002456,-0.001999999999995339],[-0.1449999999999818,-0.003999999999990678],[-0.15100000000001046,-0.0379999999999967],[-0.5910000000000082,-0.3240000000000123],[-0.4000000000000341,0.7309999999999945],[0.7309999999999945,0.3999999999999915],[0.07200000000000273,0.02600000000001046],[0,0],[0.9669999999999845,0.03300000000000125],[0.2419999999999618,-0.007999999999995566],[0.24500000000000455,-0.055999999999997385],[0.23799999999999955,-0.07200000000000273],[0,0],[0.11299999999999955,-0.05100000000000193],[0.5349999999999682,-0.7349999999999994],[0.19299999999998363,-0.39799999999999613],[0.07799999999997453,-0.20700000000000784],[0.03500000000002501,-0.10699999999999932],[0.016999999999995907,-0.054000000000002046],[0,0],[-0.40299999999996317,-0.11400000000000432],[-0.17099999999999227,0.28700000000000614]],"o":[[0.009000000000014552,-0.015000000000000568],[0,0],[0.03899999999998727,-0.0759999999999934],[0.08499999999997954,-0.15099999999999625],[0.19799999999997908,-0.284000000000006],[0.47199999999998,-0.4689999999999941],[0.07100000000002638,-0.018000000000000682],[0,0],[0.146000000000015,-0.015000000000000568],[0.14400000000000546,-0.012000000000000455],[0.14999999999997726,0.02400000000000091],[0.5980000000000132,0.12099999999999511],[0.7309999999999945,0.3990000000000009],[0.3990000000000009,-0.7309999999999945],[-0.06900000000001683,-0.0379999999999967],[0,0],[-0.8500000000000227,-0.30100000000000193],[-0.2389999999999759,-0.016000000000005343],[-0.2459999999999809,0.028000000000005798],[-0.2440000000000282,0.04200000000000159],[0,0],[-0.11599999999998545,0.045000000000001705],[-0.8919999999999959,0.4380000000000024],[-0.2699999999999818,0.3689999999999998],[-0.09500000000002728,0.20000000000000284],[-0.03899999999998727,0.10299999999999443],[-0.01799999999997226,0.05200000000000671],[0,0],[-0.1139999999999759,0.4030000000000058],[0.3369999999999891,0.09600000000000364],[0,0]]}}},{"ty":"st","o":{"a":0,"k":0},"w":{"a":0,"k":0},"c":{"a":0,"k":[0,0,0,0]},"lc":3,"lj":1,"ml":1},{"ty":"fl","o":{"a":0,"k":100},"r":1,"c":{"a":0,"k":[0.10980392156862745,0.11372549019607843,0.11764705882352941,1]}},{"ty":"tr","o":{"a":0,"k":100},"a":{"a":0,"k":[0,0]},"s":{"a":0,"k":[100,100]},"p":{"a":0,"k":[0,0]},"r":{"a":0,"k":0}}]},{"ty":"gr","nm":"pli3-01 shape group","it":[{"ty":"sh","ks":{"a":0,"k":{"c":true,"v":[[370.523,112.582],[370.386,112.44999999999999],[370.261,112.33599999999998],[370.007,112.11999999999999],[369.476,111.725],[368.301,111.07199999999999],[365.514,110.55899999999998],[365.144,110.59499999999998],[364.775,110.65599999999999],[364.05699999999996,110.856],[363.36999999999995,111.136],[362.73299999999995,111.49199999999999],[360.63999999999993,113.338],[360.61599999999993,113.366],[360.7849999999999,115.492],[362.9109999999999,115.32300000000001],[363.0519999999999,115.12800000000001],[364.26499999999993,113.63700000000001],[364.61799999999994,113.35300000000001],[364.99299999999994,113.123],[365.3879999999999,112.936],[365.59399999999994,112.86500000000001],[365.80499999999995,112.808],[367.65399999999994,112.85900000000001],[368.60999999999996,113.20700000000001],[369.07099999999997,113.44800000000001],[369.292,113.58200000000001],[369.39799999999997,113.65100000000001],[369.48499999999996,113.71000000000001],[369.626,113.78800000000001],[370.65799999999996,113.49400000000001]],"i":[[0.24099999999998545,0.2330000000000041],[0,0],[0.04099999999999682,0.036000000000001364],[0.08600000000001273,0.06999999999999318],[0.18200000000001637,0.12599999999999056],[0.41800000000000637,0.1840000000000117],[0.9919999999999618,-0.06699999999999307],[0.1220000000000141,-0.019000000000005457],[0,0],[0.23200000000002774,-0.08599999999999852],[0.2270000000000323,-0.09900000000000375],[0.19900000000001228,-0.13299999999999557],[0.5850000000000364,-0.686000000000007],[0,0],[-0.6339999999999577,-0.5400000000000063],[-0.5399999999999636,0.6340000000000003],[-0.040000000000020464,0.06499999999999773],[-0.45800000000002683,0.40399999999999636],[-0.1190000000000282,0.09600000000000364],[-0.12999999999999545,0.06199999999999761],[-0.1339999999999577,0.060000000000002274],[0,0],[-0.06999999999999318,0.01999999999999602],[-0.6429999999999723,-0.16899999999999693],[-0.313000000000045,-0.1460000000000008],[-0.1490000000000009,-0.08799999999999386],[-0.07200000000000273,-0.04600000000000648],[0,0],[-0.014999999999986358,-0.007999999999995566],[0,0],[-0.20400000000000773,0.36599999999999966]],"o":[[0,0],[-0.04199999999997317,-0.0379999999999967],[-0.08400000000000318,-0.07500000000000284],[-0.17099999999999227,-0.14000000000000057],[-0.36599999999998545,-0.24800000000000466],[-0.8319999999999936,-0.367999999999995],[-0.12299999999999045,0.012000000000000455],[0,0],[-0.24099999999998545,0.05700000000000216],[-0.2389999999999759,0.07399999999999807],[-0.21399999999999864,0.11400000000000432],[-0.8199999999999932,0.5139999999999958],[0,0],[-0.5400000000000205,0.6340000000000003],[0.6340000000000146,0.5400000000000063],[0.05099999999998772,-0.060000000000002274],[0.35000000000002274,-0.5759999999999934],[0.11200000000002319,-0.10899999999999466],[0.12400000000002365,-0.0759999999999934],[0.12700000000000955,-0.07500000000000284],[0,0],[0.06900000000001683,-0.02400000000000091],[0.5690000000000168,-0.13599999999999568],[0.3210000000000264,0.08299999999999841],[0.1560000000000059,0.07399999999999807],[0.07499999999998863,0.043000000000006366],[0,0],[0.03100000000000591,0.021000000000000796],[0,0],[0.36599999999998545,0.20399999999999352],[0.1710000000000491,-0.30500000000002103]]}}},{"ty":"st","o":{"a":0,"k":0},"w":{"a":0,"k":0},"c":{"a":0,"k":[0,0,0,0]},"lc":3,"lj":1,"ml":1},{"ty":"fl","o":{"a":0,"k":100},"r":1,"c":{"a":0,"k":[0.10980392156862745,0.11372549019607843,0.11764705882352941,1]}},{"ty":"tr","o":{"a":0,"k":100},"a":{"a":0,"k":[0,0]},"s":{"a":0,"k":[100,100]},"p":{"a":0,"k":[0,0]},"r":{"a":0,"k":0}}]},{"ty":"gr","nm":"pli3-01 shape group","it":[{"ty":"sh","ks":{"a":0,"k":{"c":true,"v":[[394.944,98.259],[394.944,98.154],[394.946,98.02799999999999],[394.959,97.77],[395.019,97.253],[395.26800000000003,96.266],[396.26500000000004,94.708],[396.43100000000004,94.565],[396.605,94.434],[396.981,94.213],[397.382,94.032],[397.815,93.89999999999999],[399.73,93.73499999999999],[401.31300000000005,92.30499999999998],[399.88300000000004,90.72199999999998],[399.65000000000003,90.72799999999998],[399.605,90.73299999999998],[396.90200000000004,91.42599999999997],[396.25000000000006,91.75299999999997],[395.63300000000004,92.16399999999997],[395.064,92.64599999999997],[394.80600000000004,92.91599999999997],[394.56800000000004,93.20199999999997],[393.42600000000004,95.79499999999997],[393.30500000000006,97.13399999999997],[393.3330000000001,97.79499999999997],[393.3690000000001,98.12599999999998],[393.3930000000001,98.29399999999998],[393.4260000000001,98.48199999999999],[394.3040000000001,99.09899999999999],[394.9290000000001,98.41999999999999]],"i":[[0,0],[0,0.03700000000000614],[0,0],[-0.005999999999971806,0.08599999999999852],[-0.02600000000001046,0.17099999999999227],[-0.11100000000004684,0.3129999999999882],[-0.43200000000001637,0.39400000000000546],[-0.05899999999996908,0.043000000000006366],[0,0],[-0.1339999999999577,0.06199999999999761],[-0.132000000000005,0.060000000000002274],[-0.15300000000002,0.03100000000000591],[-0.674000000000035,-0.033999999999991815],[-0.04200000000003001,0.8320000000000078],[0.8319999999999936,0.04200000000000159],[0.07699999999999818,-0.007999999999995566],[0,0],[0.8859999999999673,-0.3889999999999958],[0.21399999999999864,-0.11299999999999955],[0.19499999999999318,-0.15699999999999648],[0.18299999999999272,-0.16800000000000637],[0,0],[0.07900000000000773,-0.09499999999999886],[0.16199999999997772,-0.8940000000000055],[0.0019999999999527063,-0.44299999999999784],[-0.020000000000038654,-0.21999999999999886],[-0.014999999999986358,-0.1110000000000042],[-0.007999999999981355,-0.056000000000011596],[0,0],[-0.4130000000000109,0.07199999999998852],[-0.028999999999996362,0.3329999999999984]],"o":[[0.0020000000000095497,-0.016999999999995907],[0,0],[0.0020000000000095497,-0.08499999999999375],[0.012000000000000455,-0.17300000000000182],[0.05500000000000682,-0.34199999999999875],[0.22199999999998,-0.6269999999999953],[0.05700000000001637,-0.046999999999997044],[0,0],[0.125,-0.07699999999999818],[0.12400000000002365,-0.07299999999999329],[0.146000000000015,-0.04399999999999693],[0.5910000000000082,-0.15099999999999625],[0.8319999999999936,0.04200000000000159],[0.04199999999997317,-0.8319999999999936],[-0.07900000000000773,-0.0040000000000048885],[0,0],[-0.896000000000015,0.09799999999999898],[-0.22199999999998,0.08899999999999864],[-0.20999999999997954,0.132000000000005],[-0.20199999999999818,0.14400000000000546],[0,0],[-0.08499999999997954,0.09000000000000341],[-0.6139999999999759,0.7819999999999965],[-0.08300000000002683,0.44899999999999807],[0.0009999999999763531,0.22100000000000364],[0.009000000000014552,0.10999999999999943],[0.007000000000005002,0.05500000000000682],[0,0],[0.07200000000000273,0.4129999999999967],[0.34600000000000364,-0.060000000000002274],[0,0]]}}},{"ty":"st","o":{"a":0,"k":0},"w":{"a":0,"k":0},"c":{"a":0,"k":[0,0,0,0]},"lc":3,"lj":1,"ml":1},{"ty":"fl","o":{"a":0,"k":100},"r":1,"c":{"a":0,"k":[0.10980392156862745,0.11372549019607843,0.11764705882352941,1]}},{"ty":"tr","o":{"a":0,"k":100},"a":{"a":0,"k":[0,0]},"s":{"a":0,"k":[100,100]},"p":{"a":0,"k":[0,0]},"r":{"a":0,"k":0}}]},{"ty":"gr","nm":"pli3-01 shape group","it":[{"ty":"sh","ks":{"a":0,"k":{"c":true,"v":[[249.42,247.664],[258.518,201.891],[267.92299999999994,213.26299999999998],[251.16099999999994,248.91799999999998]],"i":[[-0.1969999999999743,0.9900000000000091],[0,0],[-4.073999999999955,-6.864999999999981],[27.25,-15.427999999999997]],"o":[[0,0],[0,0],[0,0],[-0.8789999999999338,0.4970000000000141]]}}},{"ty":"st","o":{"a":0,"k":0},"w":{"a":0,"k":0},"c":{"a":0,"k":[0,0,0,0]},"lc":3,"lj":1,"ml":1},{"ty":"fl","o":{"a":0,"k":100},"r":1,"c":{"a":0,"k":[0.19215686274509805,0.09803921568627451,0.26666666666666666,1]}},{"ty":"tr","o":{"a":0,"k":100},"a":{"a":0,"k":[0,0]},"s":{"a":0,"k":[100,100]},"p":{"a":0,"k":[0,0]},"r":{"a":0,"k":0}}]},{"ty":"gr","nm":"pli3-01 shape group","it":[{"ty":"sh","ks":{"a":0,"k":{"c":true,"v":[[258.519,201.891],[212.452,217.67499999999998],[210.902,216.39999999999998],[243.09099999999998,192.164]],"i":[[-5.789999999999992,-6.259999999999991],[0,0],[-0.11999999999997613,0.8700000000000045],[-26.599999999999994,-0.8060000000000116]],"o":[[0,0],[-0.8309999999999889,0.2849999999999966],[0.8400000000000034,-6.10499999999999],[2.842170943040401e-14,-0.0009999999999763531]]}}},{"ty":"st","o":{"a":0,"k":0},"w":{"a":0,"k":0},"c":{"a":0,"k":[0,0,0,0]},"lc":3,"lj":1,"ml":1},{"ty":"fl","o":{"a":0,"k":100},"r":1,"c":{"a":0,"k":[0.19215686274509805,0.09803921568627451,0.26666666666666666,1]}},{"ty":"tr","o":{"a":0,"k":100},"a":{"a":0,"k":[0,0]},"s":{"a":0,"k":[100,100]},"p":{"a":0,"k":[0,0]},"r":{"a":0,"k":0}}]},{"ty":"gr","nm":"pli3-01 shape group","it":[{"ty":"sh","ks":{"a":0,"k":{"c":true,"v":[[258.519,201.891],[254.112,239.305],[234.965,249.70000000000002]],"i":[[0,0],[0,0],[8.756,4.778999999999996]],"o":[[0,0],[0,0],[-10.825999999999993,-5.9080000000000155]]}}},{"ty":"st","o":{"a":0,"k":0},"w":{"a":0,"k":0},"c":{"a":0,"k":[0,0,0,0]},"lc":3,"lj":1,"ml":1},{"ty":"fl","o":{"a":0,"k":100},"r":1,"c":{"a":0,"k":[1,0.5647058823529412,0.5215686274509804,1]}},{"ty":"tr","o":{"a":0,"k":100},"a":{"a":0,"k":[0,0]},"s":{"a":0,"k":[100,100]},"p":{"a":0,"k":[0,0]},"r":{"a":0,"k":0}}]},{"ty":"gr","nm":"pli3-01 shape group","it":[{"ty":"sh","ks":{"a":0,"k":{"c":true,"v":[[258.519,201.891],[218.026,236.075],[217.48700000000002,209.96499999999997]],"i":[[0,0],[7.298000000000002,6.615000000000009],[0,0]],"o":[[0,0],[-7.298000000000002,-6.615000000000009],[0,0]]}}},{"ty":"st","o":{"a":0,"k":0},"w":{"a":0,"k":0},"c":{"a":0,"k":[0,0,0,0]},"lc":3,"lj":1,"ml":1},{"ty":"fl","o":{"a":0,"k":100},"r":1,"c":{"a":0,"k":[1,0.5647058823529412,0.5215686274509804,1]}},{"ty":"tr","o":{"a":0,"k":100},"a":{"a":0,"k":[0,0]},"s":{"a":0,"k":[100,100]},"p":{"a":0,"k":[0,0]},"r":{"a":0,"k":0}}]},{"ty":"gr","nm":"pli3-01 shape group","it":[{"ty":"sh","ks":{"a":0,"k":{"c":true,"v":[[266.492,202.038],[268.512,200.10600000000002],[270.634,198.27200000000002],[272.837,196.54600000000002],[275.122,194.949],[279.951,192.30200000000002],[280.26300000000003,192.16400000000002],[280.579,192.04000000000002],[281.21,191.79500000000002],[282.488,191.38400000000001],[283.775,191.068],[285.06399999999996,190.89000000000001],[285.385,190.859],[285.704,190.85000000000002],[286.022,190.84400000000002],[286.339,190.84500000000003],[286.965,190.88500000000002],[287.292,190.919],[287.62199999999996,190.961],[290.08099999999996,191.55100000000002],[291.003,192.049],[291.268,192.31],[291.35999999999996,192.496],[291.35599999999994,192.622],[291.2749999999999,192.83100000000002],[290.7369999999999,193.443],[289.8509999999999,193.991],[288.8019999999999,194.35700000000003],[287.6899999999999,194.51700000000002],[287.13099999999986,194.51800000000003],[286.99199999999985,194.51100000000002],[286.8389999999998,194.49900000000002],[286.53799999999984,194.47000000000003],[285.99699999999984,194.38300000000004],[285.64899999999983,194.27300000000002],[285.6299999999998,194.26000000000002],[285.6419999999998,194.263],[285.66799999999984,194.27700000000002],[285.90799999999984,194.537],[286.02799999999985,194.81900000000002],[286.06099999999986,195.098],[286.02099999999984,195.357],[286.14899999999983,195.223],[286.50399999999985,194.89800000000002],[286.9569999999998,194.55400000000003],[287.20099999999985,194.38800000000003],[287.32299999999987,194.31000000000003],[287.3819999999999,194.27300000000002],[287.4259999999999,194.247],[288.0769999999999,191.835],[285.6649999999999,191.184],[285.5609999999999,191.249],[285.54599999999994,191.259],[285.44199999999995,191.32899999999998],[285.3539999999999,191.391],[285.18499999999995,191.513],[284.85599999999994,191.764],[284.21099999999996,192.315],[283.56499999999994,192.99099999999999],[283.23699999999997,193.432],[282.91499999999996,194.034],[282.70699999999994,194.97799999999998],[282.77599999999995,195.60799999999998],[283.02699999999993,196.218],[283.7539999999999,196.98499999999999],[283.9279999999999,197.09599999999998],[284.0939999999999,197.18699999999998],[284.3969999999999,197.32199999999997],[285.4129999999999,197.58799999999997],[286.2769999999999,197.67899999999997],[286.68399999999986,197.69599999999997],[286.8849999999999,197.69999999999996],[287.09999999999985,197.69899999999996],[287.95599999999985,197.64799999999997],[289.6299999999998,197.30899999999997],[291.21799999999985,196.64999999999998],[292.6759999999999,195.61799999999997],[293.85899999999987,194.00399999999996],[294.14599999999984,192.85199999999998],[293.96699999999987,191.58299999999997],[293.3489999999999,190.55199999999996],[292.56599999999986,189.86499999999995],[290.96299999999985,189.09599999999995],[287.88799999999986,188.52099999999996],[287.51299999999986,